{"sizes":[400,200,46],"layers":[{"0":{},"1":{},"2":{},"3":{},"4":{},"5":{},"6":{},"7":{},"8":{},"9":{},"10":{},"11":{},"12":{},"13":{},"14":{},"15":{},"16":{},"17":{},"18":{},"19":{},"20":{},"21":{},"22":{},"23":{},"24":{},"25":{},"26":{},"27":{},"28":{},"29":{},"30":{},"31":{},"32":{},"33":{},"34":{},"35":{},"36":{},"37":{},"38":{},"39":{},"40":{},"41":{},"42":{},"43":{},"44":{},"45":{},"46":{},"47":{},"48":{},"49":{},"50":{},"51":{},"52":{},"53":{},"54":{},"55":{},"56":{},"57":{},"58":{},"59":{},"60":{},"61":{},"62":{},"63":{},"64":{},"65":{},"66":{},"67":{},"68":{},"69":{},"70":{},"71":{},"72":{},"73":{},"74":{},"75":{},"76":{},"77":{},"78":{},"79":{},"80":{},"81":{},"82":{},"83":{},"84":{},"85":{},"86":{},"87":{},"88":{},"89":{},"90":{},"91":{},"92":{},"93":{},"94":{},"95":{},"96":{},"97":{},"98":{},"99":{},"100":{},"101":{},"102":{},"103":{},"104":{},"105":{},"106":{},"107":{},"108":{},"109":{},"110":{},"111":{},"112":{},"113":{},"114":{},"115":{},"116":{},"117":{},"118":{},"119":{},"120":{},"121":{},"122":{},"123":{},"124":{},"125":{},"126":{},"127":{},"128":{},"129":{},"130":{},"131":{},"132":{},"133":{},"134":{},"135":{},"136":{},"137":{},"138":{},"139":{},"140":{},"141":{},"142":{},"143":{},"144":{},"145":{},"146":{},"147":{},"148":{},"149":{},"150":{},"151":{},"152":{},"153":{},"154":{},"155":{},"156":{},"157":{},"158":{},"159":{},"160":{},"161":{},"162":{},"163":{},"164":{},"165":{},"166":{},"167":{},"168":{},"169":{},"170":{},"171":{},"172":{},"173":{},"174":{},"175":{},"176":{},"177":{},"178":{},"179":{},"180":{},"181":{},"182":{},"183":{},"184":{},"185":{},"186":{},"187":{},"188":{},"189":{},"190":{},"191":{},"192":{},"193":{},"194":{},"195":{},"196":{},"197":{},"198":{},"199":{},"200":{},"201":{},"202":{},"203":{},"204":{},"205":{},"206":{},"207":{},"208":{},"209":{},"210":{},"211":{},"212":{},"213":{},"214":{},"215":{},"216":{},"217":{},"218":{},"219":{},"220":{},"221":{},"222":{},"223":{},"224":{},"225":{},"226":{},"227":{},"228":{},"229":{},"230":{},"231":{},"232":{},"233":{},"234":{},"235":{},"236":{},"237":{},"238":{},"239":{},"240":{},"241":{},"242":{},"243":{},"244":{},"245":{},"246":{},"247":{},"248":{},"249":{},"250":{},"251":{},"252":{},"253":{},"254":{},"255":{},"256":{},"257":{},"258":{},"259":{},"260":{},"261":{},"262":{},"263":{},"264":{},"265":{},"266":{},"267":{},"268":{},"269":{},"270":{},"271":{},"272":{},"273":{},"274":{},"275":{},"276":{},"277":{},"278":{},"279":{},"280":{},"281":{},"282":{},"283":{},"284":{},"285":{},"286":{},"287":{},"288":{},"289":{},"290":{},"291":{},"292":{},"293":{},"294":{},"295":{},"296":{},"297":{},"298":{},"299":{},"300":{},"301":{},"302":{},"303":{},"304":{},"305":{},"306":{},"307":{},"308":{},"309":{},"310":{},"311":{},"312":{},"313":{},"314":{},"315":{},"316":{},"317":{},"318":{},"319":{},"320":{},"321":{},"322":{},"323":{},"324":{},"325":{},"326":{},"327":{},"328":{},"329":{},"330":{},"331":{},"332":{},"333":{},"334":{},"335":{},"336":{},"337":{},"338":{},"339":{},"340":{},"341":{},"342":{},"343":{},"344":{},"345":{},"346":{},"347":{},"348":{},"349":{},"350":{},"351":{},"352":{},"353":{},"354":{},"355":{},"356":{},"357":{},"358":{},"359":{},"360":{},"361":{},"362":{},"363":{},"364":{},"365":{},"366":{},"367":{},"368":{},"369":{},"370":{},"371":{},"372":{},"373":{},"374":{},"375":{},"376":{},"377":{},"378":{},"379":{},"380":{},"381":{},"382":{},"383":{},"384":{},"385":{},"386":{},"387":{},"388":{},"389":{},"390":{},"391":{},"392":{},"393":{},"394":{},"395":{},"396":{},"397":{},"398":{},"399":{}},{"0":{"bias":-0.5690224170684814,"weights":{"0":-0.08494221419095993,"1":-0.07230059802532196,"2":-0.18626245856285095,"3":-0.06173720210790634,"4":0.1594489961862564,"5":0.19985495507717133,"6":0.10349983721971512,"7":0.08761971443891525,"8":0.1926165372133255,"9":0.053566306829452515,"10":-0.1198226734995842,"11":0.16725142300128937,"12":-0.07749631255865097,"13":0.049963295459747314,"14":0.19289103150367737,"15":-0.1636752337217331,"16":-0.17898017168045044,"17":0.12686757743358612,"18":-0.16034933924674988,"19":-0.03807655721902847,"20":0.189679354429245,"21":-0.0062360819429159164,"22":-0.11461678892374039,"23":-0.13995063304901123,"24":-0.04628041014075279,"25":0.016023674979805946,"26":-0.0005164340836927295,"27":-0.1270676702260971,"28":-0.19020050764083862,"29":-0.09063704311847687,"30":-0.015328302048146725,"31":-0.1559978425502777,"32":-0.015593142248690128,"33":0.14560212194919586,"34":0.1659935563802719,"35":0.1729966104030609,"36":0.08444512635469437,"37":0.024034205824136734,"38":-0.10653834044933319,"39":-0.018218589946627617,"40":0.17437341809272766,"41":0.08840952813625336,"42":-0.07086191326379776,"43":0.1552743911743164,"44":0.3002009987831116,"45":0.29563191533088684,"46":0.3682633340358734,"47":0.2862735390663147,"48":0.36416885256767273,"49":0.20496688783168793,"50":0.5882809162139893,"51":-0.1765395700931549,"52":0.043587084859609604,"53":0.013340838253498077,"54":-0.06350978463888168,"55":-0.0471876785159111,"56":0.17246028780937195,"57":0.11107943207025528,"58":-0.07876031845808029,"59":-0.058381326496601105,"60":0.16621127724647522,"61":-0.026816803961992264,"62":-0.07247121632099152,"63":0.19766691327095032,"64":-0.4102764129638672,"65":-0.01201003510504961,"66":0.2767521142959595,"67":1.0357882976531982,"68":0.8360498547554016,"69":0.8714138269424438,"70":0.5745911002159119,"71":0.27531948685646057,"72":-0.41478613018989563,"73":-0.5280460715293884,"74":-0.7602506875991821,"75":-0.6076861619949341,"76":-0.11987391114234924,"77":-0.12591712176799774,"78":0.19243957102298737,"79":0.031575512140989304,"80":0.13043531775474548,"81":0.11214430630207062,"82":-0.046729519963264465,"83":0.1535264104604721,"84":0.0373743399977684,"85":0.9403700828552246,"86":-1.056093454360962,"87":0.4991700351238251,"88":1.2140281200408936,"89":-0.042536262422800064,"90":0.28582409024238586,"91":0.1431795060634613,"92":-0.45572754740715027,"93":-1.1343532800674438,"94":-0.6591970324516296,"95":-0.25078117847442627,"96":-0.6307770609855652,"97":0.09433417022228241,"98":0.03868050500750542,"99":-0.13392724096775055,"100":-0.07557015120983124,"101":-0.10341094434261322,"102":0.35153260827064514,"103":1.0963902473449707,"104":0.3683449327945709,"105":0.2755105495452881,"106":-0.028992261737585068,"107":-0.15182186663150787,"108":-0.586586594581604,"109":0.05774010717868805,"110":0.2510518729686737,"111":-0.12018460035324097,"112":-1.460095763206482,"113":-1.1037746667861938,"114":-1.3351572751998901,"115":-0.4355619251728058,"116":-0.35251346230506897,"117":-0.1543288230895996,"118":0.025029586628079414,"119":-0.1383478194475174,"120":0.05229140818119049,"121":0.11605750769376755,"122":0.7866122722625732,"123":-0.6975524425506592,"124":1.1726102828979492,"125":0.3279529809951782,"126":-0.7368185520172119,"127":-0.8070988059043884,"128":1.4857596158981323,"129":-0.09653455018997192,"130":-1.239538550376892,"131":-0.5494424104690552,"132":-1.0252435207366943,"133":0.48453786969184875,"134":-0.23607943952083588,"135":-0.15135779976844788,"136":0.4640386700630188,"137":-0.227117657661438,"138":-0.13666632771492004,"139":-0.0906088650226593,"140":0.057664237916469574,"141":0.13836517930030823,"142":1.4628442525863647,"143":0.5937096476554871,"144":1.198763370513916,"145":1.1320562362670898,"146":0.9817668795585632,"147":0.13831226527690887,"148":1.2825384140014648,"149":-0.19034206867218018,"150":-0.7766664028167725,"151":-0.3557847738265991,"152":-1.8032962083816528,"153":0.22268053889274597,"154":-0.32882416248321533,"155":0.5273005962371826,"156":1.2678778171539307,"157":-0.2145768404006958,"158":0.03189191222190857,"159":0.06892266869544983,"160":-0.0654493123292923,"161":0.027499409392476082,"162":0.014985769987106323,"163":0.09295127540826797,"164":-0.978186309337616,"165":-0.5197749733924866,"166":-1.935499906539917,"167":-0.23118005692958832,"168":-0.30145129561424255,"169":-0.14636684954166412,"170":-0.15502257645130157,"171":0.37433162331581116,"172":0.5832799673080444,"173":-0.46641772985458374,"174":0.874082088470459,"175":0.07369036227464676,"176":-0.33504214882850647,"177":-0.004895122721791267,"178":-0.1451301872730255,"179":0.1251288205385208,"180":-0.09377757459878922,"181":0.006224396638572216,"182":0.867721676826477,"183":0.6194042563438416,"184":-1.3257298469543457,"185":-1.210945963859558,"186":1.194859266281128,"187":-0.5111820697784424,"188":-0.19953320920467377,"189":-0.8512399196624756,"190":0.2383909970521927,"191":1.4523890018463135,"192":1.8324886560440063,"193":0.6138734817504883,"194":0.18204696476459503,"195":1.1515986919403076,"196":0.15156899392604828,"197":0.052665870636701584,"198":-0.1393241137266159,"199":0.011702719144523144,"200":0.11244609206914902,"201":0.0006333710625767708,"202":0.17538632452487946,"203":0.13341806828975677,"204":0.18961262702941895,"205":-0.16997836530208588,"206":-0.11443515121936798,"207":-0.08124745637178421,"208":0.025044294074177742,"209":-0.002249401295557618,"210":0.18045486509799957,"211":0.27929165959358215,"212":-0.1128135621547699,"213":-0.11460809409618378,"214":0.027136733755469322,"215":-0.013178596273064613,"216":-0.1974673867225647,"217":0.08393453061580658,"218":0.08907508850097656,"219":0.017648961395025253,"220":0.09263350814580917,"221":0.060990314930677414,"222":0.14306387305259705,"223":0.0012516968417912722,"224":-0.14378459751605988,"225":0.13856671750545502,"226":-0.04659276455640793,"227":-0.13425445556640625,"228":0.09738187491893768,"229":-0.16166050732135773,"230":-0.08851094543933868,"231":-0.13351619243621826,"232":0.12139907479286194,"233":-0.09505397826433182,"234":-0.09609109163284302,"235":0.019008329138159752,"236":0.10738825798034668,"237":0.056697700172662735,"238":-0.09919749200344086,"239":0.04364461824297905,"240":0.056746575981378555,"241":0.05487453565001488,"242":-0.1784377545118332,"243":-0.06644850224256516,"244":-0.0021230627316981554,"245":-0.15952418744564056,"246":-0.0535571463406086,"247":0.06550726294517517,"248":0.0876910388469696,"249":0.17750491201877594,"250":0.004817523527890444,"251":-0.06443094462156296,"252":0.08765164017677307,"253":0.01098390482366085,"254":0.021172115579247475,"255":-0.13464803993701935,"256":-0.10818792879581451,"257":-0.08485773205757141,"258":-0.002669617999345064,"259":-0.18500211834907532,"260":0.03561066836118698,"261":-0.059260427951812744,"262":-0.1039678156375885,"263":0.009541886858642101,"264":-0.16691385209560394,"265":-0.145611971616745,"266":0.11127980053424835,"267":-0.0537278987467289,"268":0.10562445223331451,"269":0.051037706434726715,"270":0.1056789681315422,"271":-0.18781521916389465,"272":-0.08255641162395477,"273":-0.14998796582221985,"274":-0.08832177519798279,"275":-0.15324623882770538,"276":-0.043994177132844925,"277":-0.1363089382648468,"278":-0.16267913579940796,"279":0.13363780081272125,"280":-0.1004544049501419,"281":-0.10671490430831909,"282":-0.10183162987232208,"283":0.19335030019283295,"284":-0.15362153947353363,"285":-0.034035369753837585,"286":-0.12742125988006592,"287":0.19246076047420502,"288":-0.11992593109607697,"289":-0.1531933844089508,"290":-0.03992556035518646,"291":0.10701245069503784,"292":-0.02963186241686344,"293":-0.12332813441753387,"294":0.014924222603440285,"295":0.21305595338344574,"296":-0.16699548065662384,"297":0.12527251243591309,"298":-0.08971603214740753,"299":0.003388551762327552,"300":0.04559561610221863,"301":0.01010849978774786,"302":-0.06482905149459839,"303":0.11836595833301544,"304":0.05662871524691582,"305":0.19803345203399658,"306":-0.14210808277130127,"307":-0.0693676695227623,"308":-0.15197788178920746,"309":-0.09513938426971436,"310":0.1341300904750824,"311":0.14868584275245667,"312":0.08472813665866852,"313":-0.13790057599544525,"314":-0.05900579318404198,"315":-0.16007792949676514,"316":0.07526426017284393,"317":0.14836646616458893,"318":0.030208872631192207,"319":-0.01679323986172676,"320":0.04075906053185463,"321":-0.09723450243473053,"322":0.16104243695735931,"323":0.05590103194117546,"324":0.05580335110425949,"325":0.09516002982854843,"326":0.070995032787323,"327":-0.0658622607588768,"328":0.0057218302972614765,"329":0.004692379850894213,"330":0.015897395089268684,"331":0.024962354451417923,"332":0.045194223523139954,"333":0.031150078400969505,"334":0.07555168867111206,"335":0.14134077727794647,"336":-0.1100628525018692,"337":-0.006358584854751825,"338":0.15734641253948212,"339":0.10012352466583252,"340":-0.057198308408260345,"341":0.04589200019836426,"342":-0.0698588564991951,"343":-0.06940452754497528,"344":0.09969152510166168,"345":-0.06637193262577057,"346":-0.19076323509216309,"347":-0.16624769568443298,"348":-0.08949058502912521,"349":-0.05903477594256401,"350":-0.00389553583227098,"351":0.09830774366855621,"352":0.08067046850919724,"353":-0.18186043202877045,"354":0.07059827446937561,"355":-0.13652874529361725,"356":0.003663970623165369,"357":0.027494918555021286,"358":0.10900091379880905,"359":-0.14539913833141327,"360":0.13470827043056488,"361":-0.19825363159179688,"362":0.10711140930652618,"363":-0.12092714756727219,"364":0.21586917340755463,"365":0.17927061021327972,"366":-0.1814987063407898,"367":0.1676601618528366,"368":-0.05494300276041031,"369":0.17011615633964539,"370":0.19234520196914673,"371":0.11828865110874176,"372":0.10019764304161072,"373":0.12106207758188248,"374":0.03691275790333748,"375":-0.1278180330991745,"376":0.1493169516324997,"377":0.19575953483581543,"378":-0.07059904932975769,"379":0.25092893838882446,"380":0.17253509163856506,"381":-0.09448446333408356,"382":0.02043471857905388,"383":0.1715216189622879,"384":0.16328714787960052,"385":-0.12998180091381073,"386":-0.0010604033013805747,"387":-0.05943341180682182,"388":-0.009776860475540161,"389":0.11752276122570038,"390":-0.08916368335485458,"391":-0.038022950291633606,"392":0.1758459359407425,"393":-0.09861855208873749,"394":-0.11215902119874954,"395":-0.008915266953408718,"396":-0.02885531447827816,"397":-0.18202905356884003,"398":0.008203500881791115,"399":-0.16630327701568604}},"1":{"bias":-1.206727147102356,"weights":{"0":-0.16024573147296906,"1":-0.1115465983748436,"2":-0.16117475926876068,"3":-0.15953049063682556,"4":0.15776066482067108,"5":0.10154072195291519,"6":0.051221489906311035,"7":-0.1409919559955597,"8":-0.02148895338177681,"9":0.027130546048283577,"10":-0.10059447586536407,"11":-0.030461275950074196,"12":-0.04326847940683365,"13":0.030881768092513084,"14":0.17720146477222443,"15":-0.1968178153038025,"16":-0.1313105672597885,"17":-0.061739854514598846,"18":-0.04358810931444168,"19":-0.18011288344860077,"20":-0.128553569316864,"21":0.08271711319684982,"22":-0.17204801738262177,"23":-0.19404827058315277,"24":-0.15969830751419067,"25":0.17559637129306793,"26":0.15893983840942383,"27":0.15644969046115875,"28":-0.16118717193603516,"29":0.14505916833877563,"30":0.11203265190124512,"31":-0.0891035869717598,"32":-0.08311949670314789,"33":-0.0859905555844307,"34":0.10383585840463638,"35":0.13697415590286255,"36":0.1891024112701416,"37":0.017330104485154152,"38":0.1389365941286087,"39":-0.07732324302196503,"40":0.1512051820755005,"41":-0.11364953219890594,"42":-0.058253929018974304,"43":0.0985487848520279,"44":-0.40430229902267456,"45":-0.4486473500728607,"46":-0.20552468299865723,"47":-0.1516720950603485,"48":-0.23601524531841278,"49":0.03501903638243675,"50":-0.0025653617922216654,"51":0.06521517783403397,"52":-0.1584417223930359,"53":0.037438828498125076,"54":0.016608307138085365,"55":-0.03384007513523102,"56":0.030275443568825722,"57":0.019716458395123482,"58":-0.15555481612682343,"59":-0.10455705225467682,"60":-0.18640360236167908,"61":0.16112126410007477,"62":-0.2500610053539276,"63":-0.30924496054649353,"64":-0.07839053124189377,"65":-0.03797752037644386,"66":-0.38795018196105957,"67":0.23508913815021515,"68":0.13538344204425812,"69":0.5883217453956604,"70":0.2259201556444168,"71":0.5831893086433411,"72":0.42182111740112305,"73":0.23991413414478302,"74":0.39095988869667053,"75":0.5569101572036743,"76":0.23158730566501617,"77":0.013001074083149433,"78":-0.17900829017162323,"79":-0.27081921696662903,"80":0.054440923035144806,"81":0.11514782160520554,"82":-0.3802646994590759,"83":-1.1297022104263306,"84":-0.18751929700374603,"85":0.612014889717102,"86":0.5962676405906677,"87":-0.7101024389266968,"88":-0.019946837797760963,"89":0.2717183828353882,"90":-0.042881906032562256,"91":0.9807156324386597,"92":0.7551270723342896,"93":0.9836575388908386,"94":0.5154909491539001,"95":0.10701420903205872,"96":0.35131150484085083,"97":0.12221458554267883,"98":-0.0029652465600520372,"99":0.12245326489210129,"100":0.005728350020945072,"101":-0.16657450795173645,"102":-0.255195289850235,"103":-0.1548885703086853,"104":-0.738757312297821,"105":0.004311022348701954,"106":-1.3943527936935425,"107":-0.8639588356018066,"108":-0.4028768539428711,"109":-0.5089967846870422,"110":-1.6899495124816895,"111":0.4188709557056427,"112":0.8124673366546631,"113":-0.34479960799217224,"114":-0.35906898975372314,"115":-0.24421636760234833,"116":-0.2114577442407608,"117":-0.1299736648797989,"118":0.06541343778371811,"119":-0.12298701703548431,"120":-0.08905648440122604,"121":-0.1617985963821411,"122":-0.13587163388729095,"123":0.8916388750076294,"124":0.560769259929657,"125":0.6061816215515137,"126":-1.6595664024353027,"127":0.6440020799636841,"128":-0.337098091840744,"129":-0.4926069974899292,"130":-0.8205664157867432,"131":-0.3236188292503357,"132":-0.35930290818214417,"133":0.29665297269821167,"134":0.7308531403541565,"135":-1.0286049842834473,"136":-0.1814485639333725,"137":-0.07501856237649918,"138":0.1607600897550583,"139":-0.12533938884735107,"140":-0.0768858790397644,"141":-0.003350252518430352,"142":-0.8009267449378967,"143":0.29086825251579285,"144":-0.6514001488685608,"145":0.15479911863803864,"146":0.07178613543510437,"147":0.5785953998565674,"148":-0.28551343083381653,"149":-1.2146165370941162,"150":0.4915043115615845,"151":-0.14488036930561066,"152":2.002485513687134,"153":-1.437374234199524,"154":0.5379311442375183,"155":0.2832668423652649,"156":-0.30366769433021545,"157":-0.037981726229190826,"158":0.18314486742019653,"159":0.12276186794042587,"160":-0.018504224717617035,"161":-0.13536688685417175,"162":-0.7829828262329102,"163":-0.19857913255691528,"164":0.6627795100212097,"165":-0.7767845392227173,"166":-0.9963162541389465,"167":0.5665239095687866,"168":0.00598690053448081,"169":-1.2433239221572876,"170":-0.32249683141708374,"171":0.18228664994239807,"172":0.38089874386787415,"173":0.1714564859867096,"174":0.617169201374054,"175":1.090104579925537,"176":0.008938428945839405,"177":-0.02103419601917267,"178":-0.1363310068845749,"179":0.029006313532590866,"180":-0.18887931108474731,"181":-0.03549852594733238,"182":-0.07282711565494537,"183":0.24855957925319672,"184":2.033792018890381,"185":2.067622184753418,"186":0.4698197543621063,"187":0.30730509757995605,"188":1.0745255947113037,"189":0.6284064650535583,"190":0.9446579813957214,"191":0.9065026640892029,"192":0.6915674209594727,"193":-0.9792035818099976,"194":2.216792583465576,"195":0.49078336358070374,"196":0.25895482301712036,"197":0.2183699756860733,"198":0.19524021446704865,"199":0.18582186102867126,"200":0.16511420905590057,"201":-0.13332818448543549,"202":0.13000169396400452,"203":0.01026990357786417,"204":-0.02755826711654663,"205":0.031020186841487885,"206":0.061352986842393875,"207":0.12444071471691132,"208":0.08008012175559998,"209":-0.1909753531217575,"210":0.2573952078819275,"211":0.1902741938829422,"212":-0.14335942268371582,"213":-0.1009647473692894,"214":0.06886237859725952,"215":-0.08797334134578705,"216":0.06397119164466858,"217":-0.0107344351708889,"218":-0.06318652629852295,"219":0.1848089098930359,"220":-0.06586237251758575,"221":-0.1905195415019989,"222":0.18487584590911865,"223":0.169789656996727,"224":0.19926561415195465,"225":0.07432232052087784,"226":-0.14289768040180206,"227":0.08275976032018661,"228":0.03700113296508789,"229":0.1890639215707779,"230":0.04853815585374832,"231":0.010805601254105568,"232":-0.059515319764614105,"233":-0.10918813198804855,"234":0.08795055747032166,"235":-0.11683489382266998,"236":0.19084641337394714,"237":0.17826224863529205,"238":0.21821250021457672,"239":0.010324759408831596,"240":0.09491286426782608,"241":-0.05565173551440239,"242":-0.06814094632863998,"243":0.17941775918006897,"244":-0.08937874436378479,"245":0.17488428950309753,"246":-0.1163899153470993,"247":0.1686163991689682,"248":0.07515265792608261,"249":0.05381784215569496,"250":-0.05669039487838745,"251":-0.17796722054481506,"252":0.03248472139239311,"253":-0.02033805474638939,"254":-0.11521987617015839,"255":0.12061942368745804,"256":-0.13093644380569458,"257":0.15618959069252014,"258":0.1927446871995926,"259":-0.16506119072437286,"260":0.11550121754407883,"261":-0.038206685334444046,"262":0.049806173890829086,"263":0.035791512578725815,"264":-0.03474472090601921,"265":-0.16263775527477264,"266":0.26205921173095703,"267":0.2136356383562088,"268":-0.19119161367416382,"269":-0.0641598328948021,"270":0.0024490272626280785,"271":0.03925158083438873,"272":-0.0900157243013382,"273":0.1672021448612213,"274":-0.18840019404888153,"275":-0.04351193830370903,"276":-0.17870409786701202,"277":-0.10934017598628998,"278":-0.13680200278759003,"279":0.06345370411872864,"280":0.08701671659946442,"281":0.17932896316051483,"282":-0.13354437053203583,"283":0.0784161239862442,"284":-0.1436728537082672,"285":-0.17405688762664795,"286":-0.05191367119550705,"287":0.1297803670167923,"288":-0.12005750089883804,"289":-0.03342864289879799,"290":-0.11291730403900146,"291":0.19871313869953156,"292":-0.17528153955936432,"293":0.02221071720123291,"294":-0.04169434681534767,"295":0.08916141837835312,"296":-0.14813996851444244,"297":-0.09953580051660538,"298":-0.0665634498000145,"299":-0.14652547240257263,"300":-0.03463592007756233,"301":-0.17539456486701965,"302":-0.11940553784370422,"303":0.17194241285324097,"304":0.08978893607854843,"305":0.013980621472001076,"306":-0.05063345655798912,"307":0.16652795672416687,"308":0.011127476580440998,"309":0.12124443054199219,"310":0.1122971624135971,"311":-0.1912439614534378,"312":-0.1806122362613678,"313":0.1971302032470703,"314":-0.16260510683059692,"315":0.11241742223501205,"316":0.014727656729519367,"317":0.03480653092265129,"318":0.03383805975317955,"319":0.12981413304805756,"320":-0.14317511022090912,"321":-0.020635198801755905,"322":0.07405215501785278,"323":0.11486724019050598,"324":0.0414859913289547,"325":0.04234975203871727,"326":0.006159949582070112,"327":-0.06668265908956528,"328":0.1736200451850891,"329":-0.0744241252541542,"330":-0.11152684688568115,"331":-0.15885861217975616,"332":-0.0724528580904007,"333":-0.1489497423171997,"334":-0.01348872110247612,"335":0.18666651844978333,"336":0.22765852510929108,"337":0.20437438786029816,"338":0.024483572691679,"339":0.1952270269393921,"340":-0.11051452904939651,"341":0.14249086380004883,"342":0.1047338992357254,"343":-0.009293274022638798,"344":0.1934279203414917,"345":-0.08591223508119583,"346":-0.1539190411567688,"347":-0.042186297476291656,"348":-0.0496760793030262,"349":0.023509671911597252,"350":0.2498815804719925,"351":0.18646134436130524,"352":0.17054972052574158,"353":-0.040737614035606384,"354":-0.18719437718391418,"355":-0.15785972774028778,"356":-0.15863575041294098,"357":-0.19118204712867737,"358":0.05067523568868637,"359":-0.024497373029589653,"360":0.06988193839788437,"361":0.04642554372549057,"362":-0.13046440482139587,"363":-0.08318652957677841,"364":-0.08933119475841522,"365":-0.07436411827802658,"366":0.05339520052075386,"367":-0.05221754312515259,"368":0.07635408639907837,"369":0.19491544365882874,"370":-0.024041689932346344,"371":0.11277305334806442,"372":-0.06336770206689835,"373":0.15052707493305206,"374":0.09368567913770676,"375":0.1735730916261673,"376":0.04058512672781944,"377":0.1580953449010849,"378":0.09043934941291809,"379":0.10428465157747269,"380":0.13676004111766815,"381":0.19436347484588623,"382":0.12336272746324539,"383":0.04389413446187973,"384":-0.12847073376178741,"385":-0.057275060564279556,"386":-0.19899629056453705,"387":0.19990772008895874,"388":-0.08892017602920532,"389":0.07507243007421494,"390":0.03501245379447937,"391":-0.19672727584838867,"392":-0.07218028604984283,"393":-0.09422570466995239,"394":-0.18737611174583435,"395":0.08793013542890549,"396":-0.04704638570547104,"397":0.010065192356705666,"398":-0.07309724390506744,"399":-0.16832448542118073}},"2":{"bias":0.8514963388442993,"weights":{"0":0.10453369468450546,"1":0.06918112933635712,"2":-0.16229569911956787,"3":-0.11777975410223007,"4":0.1511947512626648,"5":-0.15870113670825958,"6":-0.13529282808303833,"7":0.02876024879515171,"8":0.15105684101581573,"9":0.1533985435962677,"10":0.1659223586320877,"11":-0.077193483710289,"12":0.10310561209917068,"13":-0.11522089689970016,"14":-0.04754278063774109,"15":0.11947491765022278,"16":-0.10398757457733154,"17":0.08910232782363892,"18":-0.03056526556611061,"19":0.16479450464248657,"20":-0.1280543953180313,"21":-0.1953950971364975,"22":0.011606963351368904,"23":-0.051867108792066574,"24":-0.02176329307258129,"25":0.05994541943073273,"26":-0.0691448450088501,"27":0.19664274156093597,"28":-0.14631196856498718,"29":0.1842358261346817,"30":-0.19175758957862854,"31":0.16649837791919708,"32":0.18340463936328888,"33":-0.1412721574306488,"34":0.195857435464859,"35":-0.050774406641721725,"36":-0.18493840098381042,"37":0.022408049553632736,"38":-0.009403086267411709,"39":0.15611468255519867,"40":0.0999336764216423,"41":0.00318712554872036,"42":0.11144690215587616,"43":-0.046554937958717346,"44":-0.021090570837259293,"45":0.2285730391740799,"46":0.10614124685525894,"47":0.284121036529541,"48":0.12642820179462433,"49":0.04988810792565346,"50":0.09724265336990356,"51":0.09258311986923218,"52":0.11884163320064545,"53":-0.06330239027738571,"54":0.06031206622719765,"55":-0.0339936688542366,"56":-0.03963538631796837,"57":0.1776360720396042,"58":0.1807701736688614,"59":-0.0877516120672226,"60":0.08252362906932831,"61":-0.0967048779129982,"62":0.10963545739650726,"63":-0.12718312442302704,"64":-0.11408527195453644,"65":0.3902699947357178,"66":0.2923601269721985,"67":0.33553269505500793,"68":0.38858264684677124,"69":0.34958627820014954,"70":0.20745880901813507,"71":0.05232170224189758,"72":-0.790521502494812,"73":0.12471780925989151,"74":0.15659525990486145,"75":0.40264254808425903,"76":-0.07130028307437897,"77":0.05863916128873825,"78":-0.20340143144130707,"79":-0.12417780607938766,"80":-0.022611558437347412,"81":0.1850576251745224,"82":-0.1572277545928955,"83":-0.14780659973621368,"84":-0.585611879825592,"85":-0.7753598690032959,"86":-0.8782914280891418,"87":0.2586284875869751,"88":-0.3762049376964569,"89":-0.8369360566139221,"90":-0.651113748550415,"91":0.8467194437980652,"92":-0.6158679723739624,"93":0.29168879985809326,"94":-0.15339995920658112,"95":0.13780280947685242,"96":0.055476412177085876,"97":-0.18843629956245422,"98":0.11673752963542938,"99":0.0789264440536499,"100":-0.13036349415779114,"101":0.11903134733438492,"102":0.3732498288154602,"103":0.6747354865074158,"104":-0.2241053581237793,"105":-1.7046071290969849,"106":-1.3000428676605225,"107":0.7155531644821167,"108":0.41035473346710205,"109":-1.1968153715133667,"110":0.6899810433387756,"111":-0.13321588933467865,"112":0.47465264797210693,"113":-0.4896326959133148,"114":-0.9230678677558899,"115":0.09523720294237137,"116":-0.2634524703025818,"117":-0.025273332372307777,"118":-0.024730367586016655,"119":-0.010671833530068398,"120":0.13454699516296387,"121":-0.1123981699347496,"122":0.0211243387311697,"123":-0.12521472573280334,"124":0.0806920975446701,"125":-2.5812854766845703,"126":-1.2065848112106323,"127":0.6469464898109436,"128":-0.9479907155036926,"129":-0.6910194158554077,"130":-0.46257075667381287,"131":-1.1889017820358276,"132":-0.1662728488445282,"133":0.23758341372013092,"134":-0.04264819249510765,"135":0.10395883023738861,"136":0.0455189049243927,"137":0.3008614182472229,"138":-0.03491665795445442,"139":-0.16153642535209656,"140":0.12437041848897934,"141":-0.03015509992837906,"142":-0.33663520216941833,"143":-0.5928314328193665,"144":0.3353971838951111,"145":-2.471832513809204,"146":0.3752387762069702,"147":1.304897665977478,"148":0.48350805044174194,"149":-0.6828442811965942,"150":-0.9285343885421753,"151":-0.3642418682575226,"152":-0.32321497797966003,"153":-0.055774882435798645,"154":-0.8757181167602539,"155":-0.5542849898338318,"156":0.02862793765962124,"157":-0.11326055228710175,"158":0.07145752012729645,"159":0.10440871864557266,"160":-0.09436783194541931,"161":-0.08884650468826294,"162":0.21938781440258026,"163":-0.41256922483444214,"164":-0.43768617510795593,"165":-1.4744744300842285,"166":0.6917908787727356,"167":1.5625336170196533,"168":-0.06185733899474144,"169":-1.1275382041931152,"170":1.156839370727539,"171":-0.053064990788698196,"172":-1.1377960443496704,"173":-1.5457220077514648,"174":-0.48170050978660583,"175":-0.4315078854560852,"176":-0.31477442383766174,"177":-0.05723832547664642,"178":-0.09678494185209274,"179":0.014622477814555168,"180":0.10185189545154572,"181":0.1360659897327423,"182":-0.2959367036819458,"183":1.4791231155395508,"184":0.3450925648212433,"185":-0.9407830238342285,"186":0.2508074641227722,"187":1.0611355304718018,"188":0.26289913058280945,"189":0.40914463996887207,"190":0.7684256434440613,"191":1.6987329721450806,"192":0.4102135896682739,"193":0.5836792588233948,"194":-0.5205017924308777,"195":-0.5718849301338196,"196":-0.16847819089889526,"197":-0.08902672678232193,"198":-0.14176686108112335,"199":0.07978478819131851,"200":0.06602206081151962,"201":-0.1378195583820343,"202":0.010439206846058369,"203":-0.1806458681821823,"204":0.021519947797060013,"205":-0.08299804478883743,"206":-0.05158626660704613,"207":0.1956399828195572,"208":-0.1336788833141327,"209":-0.1582697480916977,"210":0.018183182924985886,"211":-0.10784856975078583,"212":0.017900239676237106,"213":-0.13264189660549164,"214":0.04280611127614975,"215":-0.05693655461072922,"216":0.1691693365573883,"217":-0.039751775562763214,"218":-0.1639750599861145,"219":0.10769752413034439,"220":0.18243832886219025,"221":-0.13414983451366425,"222":-0.1645575612783432,"223":0.06096041575074196,"224":-0.012426530010998249,"225":0.20943550765514374,"226":0.08215760439634323,"227":0.07588014006614685,"228":-0.11721858382225037,"229":-0.16192814707756042,"230":-0.014302236959338188,"231":-0.08286280184984207,"232":0.1364801824092865,"233":0.16470696032047272,"234":0.07883098721504211,"235":0.03943504020571709,"236":0.17328499257564545,"237":-0.11708654463291168,"238":0.06796606630086899,"239":0.25913307070732117,"240":-0.1656752973794937,"241":0.1646537333726883,"242":-0.16483759880065918,"243":-0.005081438459455967,"244":0.11534226685762405,"245":-0.06683807820081711,"246":-0.1734050065279007,"247":-0.08127960562705994,"248":0.07290501147508621,"249":-0.08936382830142975,"250":0.11092410981655121,"251":0.11467410624027252,"252":-0.18687322735786438,"253":-0.04367583990097046,"254":0.09981979429721832,"255":-0.12833663821220398,"256":0.07148514688014984,"257":-0.13787895441055298,"258":0.14085786044597626,"259":-0.11645013093948364,"260":-0.14577046036720276,"261":0.12200020998716354,"262":-0.14696747064590454,"263":-0.004466295707970858,"264":0.1289776712656021,"265":0.09134502708911896,"266":-0.27613934874534607,"267":0.014244810678064823,"268":-0.037849560379981995,"269":0.1549937129020691,"270":-0.14495998620986938,"271":-0.06271736323833466,"272":-0.1376865655183792,"273":-0.12021712213754654,"274":0.03142712265253067,"275":0.09439564496278763,"276":0.1333654373884201,"277":0.12044261395931244,"278":0.17745204269886017,"279":0.0007686967146582901,"280":-0.03684772551059723,"281":-0.016254998743534088,"282":0.04800216853618622,"283":-0.013600414618849754,"284":0.004681464284658432,"285":-0.08954931795597076,"286":0.138745978474617,"287":0.12392918020486832,"288":-0.12419871240854263,"289":-0.14619970321655273,"290":0.10653475672006607,"291":-0.13002783060073853,"292":0.12736031413078308,"293":0.06427565962076187,"294":-0.25074654817581177,"295":0.15475322306156158,"296":0.10197026282548904,"297":0.07609113305807114,"298":0.08881648629903793,"299":-0.06016586720943451,"300":0.13582006096839905,"301":0.05151401460170746,"302":-0.14876873791217804,"303":-0.08855091035366058,"304":0.03925757482647896,"305":-0.009229248389601707,"306":-0.15370431542396545,"307":0.10936062783002853,"308":-0.09842896461486816,"309":-0.002985920524224639,"310":-0.05246780067682266,"311":-0.07886470854282379,"312":0.047063425183296204,"313":0.16357003152370453,"314":0.1251526176929474,"315":0.05819180607795715,"316":-0.0899447351694107,"317":-0.14292016625404358,"318":-0.16218975186347961,"319":0.08208534866571426,"320":-0.14295408129692078,"321":-0.11757718771696091,"322":-0.28870394825935364,"323":0.11557234078645706,"324":-0.06592999398708344,"325":0.036156244575977325,"326":-0.16206613183021545,"327":-0.01929517649114132,"328":0.1442939192056656,"329":-0.1994876116514206,"330":0.06347315013408661,"331":-0.052258968353271484,"332":0.06970573961734772,"333":0.09961725771427155,"334":0.09700125455856323,"335":0.18233370780944824,"336":-0.07607370615005493,"337":-0.09519214928150177,"338":0.13653022050857544,"339":-0.17509403824806213,"340":-0.07032740116119385,"341":-0.05438341945409775,"342":0.10034994035959244,"343":0.04793400689959526,"344":0.002961391117423773,"345":0.03784539923071861,"346":-0.021525457501411438,"347":0.05849596485495567,"348":0.0093409214168787,"349":-0.10101484507322311,"350":0.06347477436065674,"351":-0.05988656356930733,"352":-0.07648489624261856,"353":0.15925395488739014,"354":0.17570912837982178,"355":0.0040720743127167225,"356":0.17086432874202728,"357":0.005441185086965561,"358":-0.1960211545228958,"359":0.05620923638343811,"360":-0.09402456879615784,"361":0.07816030085086823,"362":-0.19243355095386505,"363":-0.14434993267059326,"364":0.030025145038962364,"365":0.18212822079658508,"366":-0.10262922197580338,"367":0.05164853855967522,"368":-0.10141198337078094,"369":0.1898007094860077,"370":0.0927661657333374,"371":-0.1393311321735382,"372":-0.04731493070721626,"373":0.0656362995505333,"374":0.19975973665714264,"375":0.036821115761995316,"376":0.14009898900985718,"377":-0.10088546574115753,"378":-0.21945643424987793,"379":0.16955958306789398,"380":-0.13313552737236023,"381":-0.042189791798591614,"382":0.07603964954614639,"383":-0.16477419435977936,"384":-0.1951267421245575,"385":0.02236493118107319,"386":-0.1957789659500122,"387":0.13974949717521667,"388":0.17124386131763458,"389":0.03547695279121399,"390":-0.16596244275569916,"391":-0.1664949357509613,"392":-0.18436455726623535,"393":0.18347112834453583,"394":0.1506831794977188,"395":0.1654343456029892,"396":0.15691547095775604,"397":0.12101596593856812,"398":-0.14741253852844238,"399":-0.0783270075917244}},"3":{"bias":-0.5168052911758423,"weights":{"0":-0.1684570610523224,"1":-0.03414520248770714,"2":0.0402306504547596,"3":-0.1384439617395401,"4":0.1448543220758438,"5":-0.19212885200977325,"6":-0.19111914932727814,"7":0.1731947362422943,"8":0.13677369058132172,"9":0.012374245561659336,"10":0.16727527976036072,"11":-0.11331018060445786,"12":0.032774463295936584,"13":0.018753966316580772,"14":-0.003180532716214657,"15":-0.03474118188023567,"16":-0.06046823039650917,"17":0.15452994406223297,"18":0.12177874892950058,"19":0.11700305342674255,"20":-0.167466402053833,"21":0.02702881395816803,"22":0.17003028094768524,"23":-0.08711003512144089,"24":-0.11130272597074509,"25":0.18024508655071259,"26":0.18323813378810883,"27":-0.11803273111581802,"28":0.00935212429612875,"29":0.08510088920593262,"30":0.07712314277887344,"31":0.11726225912570953,"32":-0.009787892922759056,"33":-0.16352969408035278,"34":-0.08902768045663834,"35":-0.030071724206209183,"36":0.17042049765586853,"37":-0.00012497934221755713,"38":-0.04160962253808975,"39":-0.04883697256445885,"40":0.18023814260959625,"41":0.053483493626117706,"42":0.01807202585041523,"43":-0.10810661315917969,"44":0.09703339636325836,"45":0.11299252510070801,"46":0.04169526323676109,"47":0.06482567638158798,"48":-0.7011830806732178,"49":-0.4526240825653076,"50":-0.008875741623342037,"51":-0.023942194879055023,"52":-0.12851054966449738,"53":0.039645954966545105,"54":-0.08133359998464584,"55":-0.13148128986358643,"56":0.18952210247516632,"57":-0.09930688142776489,"58":-0.03245216980576515,"59":0.04547208920121193,"60":-0.05463258549571037,"61":0.025325218215584755,"62":-0.18644261360168457,"63":-0.06264159083366394,"64":-0.11374200135469437,"65":0.06541799753904343,"66":0.19396869838237762,"67":-0.532753586769104,"68":-0.8170508146286011,"69":-0.20179332792758942,"70":0.12542155385017395,"71":-0.7985044717788696,"72":-0.7780013084411621,"73":-0.0786537155508995,"74":0.5106260180473328,"75":0.027969172224402428,"76":-0.18177290260791779,"77":0.16420866549015045,"78":-0.18513479828834534,"79":-0.045583054423332214,"80":-0.18047936260700226,"81":-0.15793664753437042,"82":0.18811462819576263,"83":-0.1294349730014801,"84":0.4672459065914154,"85":1.4448579549789429,"86":0.06689968705177307,"87":-0.595697283744812,"88":-0.5372732877731323,"89":-0.12886835634708405,"90":-0.3231726884841919,"91":-0.5913921594619751,"92":-0.3098147511482239,"93":0.629997730255127,"94":0.9343077540397644,"95":-0.18361717462539673,"96":-0.5770049095153809,"97":-0.02736392244696617,"98":-0.04100365191698074,"99":0.02256772667169571,"100":-0.14821262657642365,"101":0.11152856051921844,"102":-0.5795837640762329,"103":0.13392001390457153,"104":0.6700482964515686,"105":0.8353622555732727,"106":0.593103289604187,"107":-0.17176581919193268,"108":0.05084225535392761,"109":-0.30956554412841797,"110":0.2061665952205658,"111":-0.4347536563873291,"112":-1.225427508354187,"113":0.752964437007904,"114":-0.27662569284439087,"115":-0.24774013459682465,"116":0.16358642280101776,"117":0.21492421627044678,"118":0.06414488703012466,"119":-0.17788347601890564,"120":0.04354749619960785,"121":-0.12825652956962585,"122":-0.18371275067329407,"123":0.09833838045597076,"124":-0.15634995698928833,"125":0.423165500164032,"126":0.6277906894683838,"127":-0.2278476059436798,"128":-0.19192393124103546,"129":0.6923486590385437,"130":-0.6969735026359558,"131":-1.6703683137893677,"132":-2.2759382724761963,"133":0.04402955248951912,"134":0.15188172459602356,"135":-0.3809675872325897,"136":0.08877026289701462,"137":0.10842165350914001,"138":0.2752322256565094,"139":0.1316978633403778,"140":0.1875305026769638,"141":-0.18300360441207886,"142":0.5292502045631409,"143":1.5004019737243652,"144":-0.4902055263519287,"145":1.090259313583374,"146":-0.1695115566253662,"147":-0.4846802055835724,"148":0.7512543797492981,"149":1.1672964096069336,"150":-1.0335414409637451,"151":1.0088350772857666,"152":0.034252941608428955,"153":0.25217244029045105,"154":-0.008890585973858833,"155":0.09119397401809692,"156":-0.28103163838386536,"157":0.25069549679756165,"158":-0.11567961424589157,"159":0.17068973183631897,"160":-0.1094609797000885,"161":-0.16836363077163696,"162":0.5617111921310425,"163":1.0028139352798462,"164":0.528229296207428,"165":0.7044018507003784,"166":-0.707504391670227,"167":0.8831297159194946,"168":0.2285536527633667,"169":0.9180389046669006,"170":0.09124317020177841,"171":-0.9239490032196045,"172":-0.9047804474830627,"173":-0.2590968608856201,"174":0.5371226072311401,"175":0.4831208884716034,"176":-0.038218479603528976,"177":-0.034755464643239975,"178":-0.18164198100566864,"179":0.03272554650902748,"180":0.11630450934171677,"181":-0.08985085040330887,"182":0.18502792716026306,"183":-0.6470858454704285,"184":-0.06583218276500702,"185":0.5589127540588379,"186":1.59035062789917,"187":1.0262351036071777,"188":0.9026129841804504,"189":1.6717084646224976,"190":0.04946897178888321,"191":-0.4188162386417389,"192":0.5330336093902588,"193":-1.0080649852752686,"194":0.22870054841041565,"195":0.06250569969415665,"196":-0.07594753801822662,"197":-0.18414437770843506,"198":0.12198622524738312,"199":0.11200905591249466,"200":0.018418002873659134,"201":-0.09602422267198563,"202":0.09535300731658936,"203":0.10621248185634613,"204":0.10539287328720093,"205":0.02065775729715824,"206":-0.05590285733342171,"207":0.0007885607774369419,"208":0.1196962371468544,"209":0.13312867283821106,"210":0.15208686888217926,"211":-0.21065229177474976,"212":0.12800055742263794,"213":-0.16093865036964417,"214":-0.021210111677646637,"215":0.11638763546943665,"216":-0.08105230331420898,"217":-0.01852264627814293,"218":-0.04627426341176033,"219":0.15355415642261505,"220":0.04124937579035759,"221":-0.027177711948752403,"222":-0.07465288043022156,"223":0.004070698283612728,"224":-0.10196025669574738,"225":0.14697608351707458,"226":0.05954480171203613,"227":0.10568449646234512,"228":0.1921910047531128,"229":-0.0898919329047203,"230":-0.10715234279632568,"231":0.0019800178706645966,"232":-0.08507853001356125,"233":-0.12855549156665802,"234":-0.09432696551084518,"235":-0.03482532501220703,"236":-0.0894119068980217,"237":0.1834670454263687,"238":-0.1308714598417282,"239":-0.17537495493888855,"240":-0.02170214243233204,"241":0.05699791759252548,"242":0.17681656777858734,"243":0.01057676412165165,"244":0.1572699397802353,"245":0.1756015121936798,"246":0.09074700623750687,"247":0.06886888295412064,"248":0.11445309221744537,"249":0.06576547026634216,"250":0.15131933987140656,"251":0.14033916592597961,"252":-0.22520984709262848,"253":-0.18273106217384338,"254":0.02905958704650402,"255":-0.09964628517627716,"256":-0.010548798367381096,"257":-0.02179144322872162,"258":0.06245363503694534,"259":-0.047155871987342834,"260":0.17514926195144653,"261":-0.12142211943864822,"262":0.11328649520874023,"263":0.10051742941141129,"264":-0.16335511207580566,"265":0.151580348610878,"266":-0.15242360532283783,"267":0.13857793807983398,"268":0.16088853776454926,"269":-0.08090551197528839,"270":0.1270267218351364,"271":0.10604259371757507,"272":-0.10924429446458817,"273":-0.10771399736404419,"274":0.1970047950744629,"275":0.14049607515335083,"276":0.10661487281322479,"277":0.0260379109531641,"278":-0.17018817365169525,"279":0.018338395282626152,"280":0.11776883900165558,"281":-0.24603694677352905,"282":-0.049153730273246765,"283":0.18074634671211243,"284":-0.1278887391090393,"285":0.06098382547497749,"286":0.17934148013591766,"287":0.10696685314178467,"288":0.12746314704418182,"289":0.19552703201770782,"290":-0.17082375288009644,"291":-0.11656566709280014,"292":0.11443609744310379,"293":-0.07945162057876587,"294":0.05501721426844597,"295":0.12452767044305801,"296":0.17883886396884918,"297":0.03400151804089546,"298":0.12731041014194489,"299":-0.14486569166183472,"300":0.19730906188488007,"301":0.1078183725476265,"302":0.08538162708282471,"303":-0.1072288379073143,"304":-0.04028330370783806,"305":-0.15708306431770325,"306":0.1572498083114624,"307":-0.013920997269451618,"308":0.13442765176296234,"309":-0.1291426420211792,"310":-0.08348651230335236,"311":-0.06751691550016403,"312":-0.14455266296863556,"313":-0.1345059722661972,"314":0.0186829324811697,"315":0.14170320332050323,"316":0.12948492169380188,"317":0.09798558801412582,"318":-0.03130674362182617,"319":-0.11539660394191742,"320":0.18734854459762573,"321":0.16422301530838013,"322":0.12419626861810684,"323":-0.1582414209842682,"324":-0.07539036124944687,"325":0.01786665804684162,"326":-0.09213569015264511,"327":0.030006807297468185,"328":0.028088059276342392,"329":0.13746480643749237,"330":0.05171522498130798,"331":0.009488627314567566,"332":0.12497743964195251,"333":-0.10539019107818604,"334":0.18484950065612793,"335":-0.17891913652420044,"336":-0.09815861284732819,"337":0.13796141743659973,"338":-0.024825580418109894,"339":0.12672267854213715,"340":0.14365732669830322,"341":0.013553787022829056,"342":-0.17353084683418274,"343":-0.07545610517263412,"344":-0.19009168446063995,"345":-0.17674745619297028,"346":-0.13689908385276794,"347":0.012734493240714073,"348":-0.005732113961130381,"349":-0.06894198805093765,"350":0.016134165227413177,"351":-0.05972175672650337,"352":0.11110692471265793,"353":-0.11264164000749588,"354":-0.08681312948465347,"355":-0.12347434461116791,"356":0.05728396773338318,"357":-0.1573665291070938,"358":-0.19447208940982819,"359":0.12220481783151627,"360":0.05271102860569954,"361":-0.05839599668979645,"362":-0.054536644369363785,"363":0.15243864059448242,"364":0.023462209850549698,"365":-0.17672821879386902,"366":0.14282934367656708,"367":-0.0698763057589531,"368":0.13923150300979614,"369":-0.07532907277345657,"370":0.0962906926870346,"371":0.04548599570989609,"372":0.07744386792182922,"373":0.06749989837408066,"374":-0.12938326597213745,"375":-0.14186246693134308,"376":0.0939595177769661,"377":-0.08333522081375122,"378":0.0392257384955883,"379":0.05658552050590515,"380":-0.0697811022400856,"381":0.11781012266874313,"382":0.028061725199222565,"383":0.06494531035423279,"384":-0.13185347616672516,"385":0.06757522374391556,"386":0.020427992567420006,"387":0.004836780950427055,"388":0.15219449996948242,"389":0.09014596045017242,"390":-0.11592543125152588,"391":0.12005697190761566,"392":0.035187844187021255,"393":-0.01945715770125389,"394":-0.061794448643922806,"395":0.10276346653699875,"396":0.03430700674653053,"397":0.13996155560016632,"398":-0.08454179763793945,"399":0.15602318942546844}},"4":{"bias":0.23895426094532013,"weights":{"0":-0.10038062930107117,"1":-0.0785190761089325,"2":0.001008079038001597,"3":-0.1872713267803192,"4":0.1238049641251564,"5":-0.11181063950061798,"6":-0.08379112184047699,"7":-0.030353112146258354,"8":-0.08055046200752258,"9":-0.041721902787685394,"10":0.08901894092559814,"11":0.12313146889209747,"12":-0.036632150411605835,"13":0.02344885654747486,"14":-0.1357898861169815,"15":0.07341165840625763,"16":-0.058565862476825714,"17":0.17986449599266052,"18":0.09804768860340118,"19":-0.0935794785618782,"20":0.06690412759780884,"21":-0.11308398842811584,"22":-0.0001398141321260482,"23":0.027347128838300705,"24":0.022195834666490555,"25":-0.12563209235668182,"26":0.032380636781454086,"27":-0.19041767716407776,"28":-0.1519026905298233,"29":0.13753098249435425,"30":-0.08044102042913437,"31":-0.1242728903889656,"32":0.10018886625766754,"33":-0.17797131836414337,"34":-0.1190696731209755,"35":-0.11913132667541504,"36":-0.15199212729930878,"37":-0.03733237832784653,"38":0.03764647990465164,"39":0.11697182804346085,"40":-0.18801209330558777,"41":0.18196775019168854,"42":0.007824490778148174,"43":0.09333594888448715,"44":-0.03838249295949936,"45":0.23409834504127502,"46":-0.3101007342338562,"47":-0.14309866726398468,"48":-0.09554284065961838,"49":0.32608067989349365,"50":-0.015688812360167503,"51":0.031131340190768242,"52":0.060833487659692764,"53":0.08926930278539658,"54":0.043303780257701874,"55":0.13462698459625244,"56":0.09258826076984406,"57":0.09890471398830414,"58":-0.006849503610283136,"59":0.17829200625419617,"60":0.13850480318069458,"61":0.04300402104854584,"62":0.08209609985351562,"63":-0.33443349599838257,"64":-0.2807268500328064,"65":0.40277329087257385,"66":-0.011530360206961632,"67":-0.04181721806526184,"68":0.1264483481645584,"69":-0.3062221109867096,"70":-0.20189356803894043,"71":-0.09170256555080414,"72":0.012233857996761799,"73":0.514677882194519,"74":0.19376327097415924,"75":0.0737060010433197,"76":-0.08020162582397461,"77":-0.010612993501126766,"78":-0.17955845594406128,"79":0.12274419516324997,"80":0.13961167633533478,"81":-0.007177999708801508,"82":-0.1634577363729477,"83":-0.34424009919166565,"84":-0.7043103575706482,"85":0.17179259657859802,"86":-0.024276472628116608,"87":-0.1933996081352234,"88":-0.8748177289962769,"89":-0.6136232614517212,"90":0.26914700865745544,"91":0.41481855511665344,"92":0.44594016671180725,"93":0.6064430475234985,"94":0.6746958494186401,"95":0.086968794465065,"96":0.0801008939743042,"97":0.09221436083316803,"98":-0.07494490593671799,"99":0.0495767705142498,"100":0.05896694213151932,"101":-0.17695483565330505,"102":-0.13214315474033356,"103":-0.9580716490745544,"104":-0.4063962697982788,"105":-0.7325023412704468,"106":-0.9252078533172607,"107":-1.5099565982818604,"108":0.2673158347606659,"109":-0.7405384182929993,"110":-0.07227133214473724,"111":0.48184889554977417,"112":0.3164867162704468,"113":0.7716532349586487,"114":0.3054565191268921,"115":0.1749759167432785,"116":-0.23118314146995544,"117":0.20206929743289948,"118":-0.05567792430520058,"119":0.1833466738462448,"120":0.1343720257282257,"121":0.1035374104976654,"122":0.03446868062019348,"123":-0.8152335286140442,"124":-1.2893736362457275,"125":-0.9788321256637573,"126":-0.3933030664920807,"127":0.36349183320999146,"128":0.6670039296150208,"129":-1.0788288116455078,"130":-0.5930734276771545,"131":-0.45922139286994934,"132":-0.6183301210403442,"133":0.03631744161248207,"134":-0.043654222041368484,"135":-0.26877716183662415,"136":-0.3569854199886322,"137":0.16265057027339935,"138":-0.18550866842269897,"139":-0.11819908767938614,"140":-0.08940527588129044,"141":0.14784620702266693,"142":0.17879079282283783,"143":0.7991157174110413,"144":0.07859241217374802,"145":-0.31437113881111145,"146":0.34065109491348267,"147":0.21462120115756989,"148":0.25945064425468445,"149":-0.2994879186153412,"150":-0.42615851759910583,"151":0.15817295014858246,"152":0.7165355086326599,"153":0.2358136922121048,"154":0.3390572667121887,"155":-0.37184619903564453,"156":-0.04550645872950554,"157":0.08147238194942474,"158":-0.02534910850226879,"159":-0.04700988158583641,"160":0.1877821385860443,"161":0.10963723063468933,"162":0.26489031314849854,"163":0.12547597289085388,"164":0.3927363455295563,"165":-0.3261585831642151,"166":-0.06526677310466766,"167":0.8842504024505615,"168":0.3047904372215271,"169":0.40298163890838623,"170":0.5578615665435791,"171":-0.19336043298244476,"172":0.17850622534751892,"173":0.1430225521326065,"174":0.2556212246417999,"175":-0.13951367139816284,"176":0.12895312905311584,"177":0.1884700059890747,"178":0.12059268355369568,"179":0.15316495299339294,"180":0.09573333710432053,"181":-0.047692716121673584,"182":0.11531932651996613,"183":0.38674992322921753,"184":-0.030919993296265602,"185":-0.15641921758651733,"186":0.22439409792423248,"187":0.20930875837802887,"188":1.1313339471817017,"189":-0.5564528107643127,"190":-2.2170145511627197,"191":-0.9873499274253845,"192":-1.272143006324768,"193":-0.8788453936576843,"194":-0.5705966949462891,"195":-0.292910635471344,"196":-0.3301346004009247,"197":-0.18325699865818024,"198":-0.07155883312225342,"199":0.07685355097055435,"200":-0.10487785935401917,"201":-0.120511494576931,"202":0.012798572890460491,"203":0.13955847918987274,"204":0.1906672865152359,"205":0.03150709718465805,"206":0.12232230603694916,"207":-0.08230161666870117,"208":-0.1009112000465393,"209":0.1915724128484726,"210":-0.1046396940946579,"211":0.03833752125501633,"212":0.1725860983133316,"213":-0.0750449150800705,"214":0.1038668304681778,"215":0.15940691530704498,"216":0.13560594618320465,"217":0.18211820721626282,"218":0.023864159360527992,"219":-0.02424297109246254,"220":-0.10860797017812729,"221":0.17261813580989838,"222":0.024374263361096382,"223":-0.15882523357868195,"224":-0.02011871710419655,"225":-0.055488213896751404,"226":-0.036927372217178345,"227":0.17446498572826385,"228":-0.07571712881326675,"229":0.053663063794374466,"230":-0.07851168513298035,"231":0.14534272253513336,"232":0.07698091119527817,"233":-0.08581160753965378,"234":0.1308191418647766,"235":0.0671151727437973,"236":-0.15695641934871674,"237":0.14336320757865906,"238":-0.08974018692970276,"239":0.09803332388401031,"240":-0.1452433317899704,"241":-0.12314058095216751,"242":-0.07459110021591187,"243":-0.019621416926383972,"244":-0.17972001433372498,"245":0.08407887071371078,"246":0.0037037006113678217,"247":0.15961231291294098,"248":0.10290911793708801,"249":0.037271056324243546,"250":0.13965432345867157,"251":-0.12664277851581573,"252":-0.3135245144367218,"253":0.14099393784999847,"254":-0.18748699128627777,"255":-0.07793041318655014,"256":0.15911805629730225,"257":-0.13871295750141144,"258":-0.1472049355506897,"259":-0.10665573179721832,"260":0.05135906860232353,"261":0.09093132615089417,"262":-0.05688909441232681,"263":0.12773090600967407,"264":0.04071817547082901,"265":0.11633016914129257,"266":-0.29274559020996094,"267":-0.15427757799625397,"268":-0.0037366708274930716,"269":-0.11416423320770264,"270":0.1748211681842804,"271":0.10517764836549759,"272":-0.1860235184431076,"273":-0.017623435705900192,"274":0.17035844922065735,"275":0.10214435309171677,"276":-0.0500808022916317,"277":-0.007421498186886311,"278":0.12756551802158356,"279":0.04087067395448685,"280":0.010480659082531929,"281":-0.09485693275928497,"282":-0.1796407401561737,"283":-0.07999324053525925,"284":-0.15477564930915833,"285":0.03718327358365059,"286":0.04501672089099884,"287":0.06532390415668488,"288":0.0031706674490123987,"289":-0.04596599191427231,"290":0.01644575223326683,"291":0.18990936875343323,"292":0.06613744795322418,"293":0.012967722490429878,"294":-0.27628737688064575,"295":0.11672988533973694,"296":0.16801881790161133,"297":0.1215544119477272,"298":0.02995828166604042,"299":0.1549966186285019,"300":-0.021048353984951973,"301":-0.14234763383865356,"302":0.12376468628644943,"303":-0.11213141679763794,"304":-0.16712021827697754,"305":0.13257542252540588,"306":-0.06176573783159256,"307":0.08706427365541458,"308":0.017243405804038048,"309":-0.19786645472049713,"310":0.01857607066631317,"311":0.18087241053581238,"312":0.053585235029459,"313":0.039460599422454834,"314":-0.0017858374631032348,"315":0.04091651365160942,"316":0.11200790852308273,"317":0.14576061069965363,"318":-0.0652056559920311,"319":-0.05328455567359924,"320":-0.10336383432149887,"321":0.1680385321378708,"322":-0.2669547498226166,"323":0.005753241945058107,"324":-0.15365563333034515,"325":0.025692274793982506,"326":-0.15659897029399872,"327":-0.09842634946107864,"328":-0.10798504948616028,"329":0.17960183322429657,"330":0.1673864871263504,"331":0.08346718549728394,"332":-0.13527043163776398,"333":-0.11456377059221268,"334":-0.1638866364955902,"335":0.023020585998892784,"336":0.013270199298858643,"337":-0.11095011234283447,"338":0.1495419293642044,"339":-0.07282429188489914,"340":-0.0020663291215896606,"341":0.016790278255939484,"342":0.05028130114078522,"343":-0.10044235736131668,"344":-0.10701663047075272,"345":-0.015029028058052063,"346":-0.023893821984529495,"347":-0.028612688183784485,"348":-0.10717476904392242,"349":0.1255747526884079,"350":-0.062421415001153946,"351":0.1562456637620926,"352":0.13630636036396027,"353":-0.10142974555492401,"354":-0.07894288748502731,"355":0.07725337892770767,"356":0.10377798974514008,"357":0.11315616220235825,"358":0.10926512628793716,"359":-0.1801862120628357,"360":0.1607665717601776,"361":0.06134749948978424,"362":-0.18372252583503723,"363":-0.003757485654205084,"364":-0.23727616667747498,"365":-0.18709342181682587,"366":0.1442248672246933,"367":-0.17911271750926971,"368":0.06285860389471054,"369":-0.09463310986757278,"370":0.016749829053878784,"371":-0.053781911730766296,"372":-0.1926383525133133,"373":-0.13133886456489563,"374":0.08564718067646027,"375":-0.11216399073600769,"376":0.08605767041444778,"377":0.0746438056230545,"378":0.022335151210427284,"379":0.07185550034046173,"380":-0.0113302543759346,"381":0.01914301887154579,"382":0.01796433888375759,"383":-0.020403839647769928,"384":-0.13216419517993927,"385":0.03235386684536934,"386":0.19406796991825104,"387":0.0980152040719986,"388":-0.1355808973312378,"389":-0.1814473271369934,"390":0.06432564556598663,"391":-0.12551987171173096,"392":-0.28249451518058777,"393":0.04356236010789871,"394":0.08998394757509232,"395":0.15392689406871796,"396":0.048622168600559235,"397":-0.1947399377822876,"398":0.07509937882423401,"399":0.19952251017093658}},"5":{"bias":0.09637194871902466,"weights":{"0":-0.19875004887580872,"1":0.09396811574697495,"2":-0.1806662678718567,"3":-0.11049797385931015,"4":-0.05759561434388161,"5":-0.08320450037717819,"6":-0.102332204580307,"7":0.0005767323891632259,"8":0.10233118385076523,"9":0.06979632377624512,"10":0.1789156198501587,"11":0.19917705655097961,"12":-0.10537919402122498,"13":0.1330852061510086,"14":-0.13504920899868011,"15":-0.07152324914932251,"16":0.0413963720202446,"17":0.1402069628238678,"18":0.13100235164165497,"19":-0.1421017050743103,"20":0.1483571082353592,"21":0.08842708170413971,"22":-0.18308709561824799,"23":-0.08235324174165726,"24":-0.030562138184905052,"25":-0.07058966159820557,"26":0.1772492378950119,"27":-0.16443626582622528,"28":0.15328288078308105,"29":-0.02039806731045246,"30":0.16851942241191864,"31":0.11927539855241776,"32":0.08805754780769348,"33":-0.12037471681833267,"34":0.18258245289325714,"35":-0.02916351892054081,"36":-0.026326848194003105,"37":-0.19533205032348633,"38":0.03279094398021698,"39":0.18286940455436707,"40":0.08654765039682388,"41":-0.07072510570287704,"42":0.10258756577968597,"43":-0.02468171715736389,"44":0.1651892513036728,"45":-0.1534353345632553,"46":-0.20606091618537903,"47":-0.0023516202345490456,"48":-0.012611279264092445,"49":0.37677597999572754,"50":-0.00813661701977253,"51":0.16503910720348358,"52":-0.056145887821912766,"53":0.029789894819259644,"54":0.13495925068855286,"55":-0.15419995784759521,"56":0.08147098124027252,"57":0.04038302227854729,"58":0.12835034728050232,"59":0.1704615354537964,"60":0.04309700056910515,"61":0.18662098050117493,"62":0.24042491614818573,"63":0.5542337894439697,"64":0.5858350992202759,"65":0.6121148467063904,"66":0.4389088749885559,"67":0.7979438900947571,"68":0.43900856375694275,"69":0.3352753221988678,"70":0.07827328145503998,"71":0.20798051357269287,"72":-0.31865131855010986,"73":-0.05121322348713875,"74":-0.00958389975130558,"75":-0.23497723042964935,"76":-0.09807654470205307,"77":-0.052410244941711426,"78":-0.06460443139076233,"79":-0.044660165905952454,"80":0.1915106624364853,"81":0.18120643496513367,"82":0.2746739983558655,"83":0.17344145476818085,"84":1.369529128074646,"85":-0.1396445333957672,"86":0.7914188504219055,"87":0.7610289454460144,"88":0.6920254230499268,"89":0.4535263776779175,"90":-0.01088350173085928,"91":-0.5746069550514221,"92":0.34982234239578247,"93":-0.07889509946107864,"94":0.061417657881975174,"95":0.1227523609995842,"96":-0.01236999873071909,"97":0.04683244228363037,"98":0.10181708633899689,"99":-0.1333978921175003,"100":-0.1138877421617508,"101":0.18358172476291656,"102":0.4399898648262024,"103":-1.2448105812072754,"104":-0.07161823660135269,"105":-0.8603250980377197,"106":-0.06951785087585449,"107":0.7987929582595825,"108":0.4610311985015869,"109":-1.0081647634506226,"110":-1.0507111549377441,"111":-0.4038463532924652,"112":0.24827417731285095,"113":-0.7534264922142029,"114":0.18519480526447296,"115":-0.003367422381415963,"116":0.20498648285865784,"117":0.34033194184303284,"118":-0.026768026873469353,"119":0.10732805728912354,"120":-0.01355691347271204,"121":-0.03777371346950531,"122":0.29475975036621094,"123":-0.9981385469436646,"124":0.45407599210739136,"125":-0.4830007553100586,"126":-0.49202731251716614,"127":0.6335105895996094,"128":0.1852966845035553,"129":-0.4502461850643158,"130":0.14034853875637054,"131":-0.03233452886343002,"132":-0.04233936592936516,"133":1.168885350227356,"134":-0.1349055916070938,"135":-0.0918780192732811,"136":-0.4495978057384491,"137":0.277849406003952,"138":-0.11473455280065536,"139":0.09419379383325577,"140":0.1982058584690094,"141":0.03371524065732956,"142":0.9826189279556274,"143":0.3486729562282562,"144":0.9173203706741333,"145":-0.3618445098400116,"146":-0.7888523936271667,"147":-0.5170955657958984,"148":0.18195655941963196,"149":-0.7472743988037109,"150":-1.2646085023880005,"151":-1.3560539484024048,"152":0.7549905180931091,"153":-0.07509399950504303,"154":-0.16664263606071472,"155":-0.6846280694007874,"156":-0.257851243019104,"157":-0.159852534532547,"158":0.1174091026186943,"159":-0.05483485385775566,"160":0.11474797129631042,"161":0.04463610798120499,"162":0.25316891074180603,"163":0.396075576543808,"164":0.3341975510120392,"165":0.029095608741044998,"166":0.01775764673948288,"167":-0.5749726891517639,"168":-0.3568773567676544,"169":0.38735389709472656,"170":-1.1097042560577393,"171":-0.9547737240791321,"172":-0.1095200926065445,"173":0.693411111831665,"174":-0.48040205240249634,"175":-0.24543891847133636,"176":-0.18447527289390564,"177":0.10285520553588867,"178":-0.17505936324596405,"179":0.0945502370595932,"180":-0.11449258029460907,"181":-0.1538095623254776,"182":-0.32084304094314575,"183":0.41065797209739685,"184":1.452942967414856,"185":0.637921929359436,"186":-0.8753260374069214,"187":-0.9173489809036255,"188":-0.11686588823795319,"189":0.4593161642551422,"190":-0.8505872488021851,"191":-0.40781471133232117,"192":-0.03983962908387184,"193":1.2906250953674316,"194":-1.0278456211090088,"195":-0.2115897536277771,"196":0.14378505945205688,"197":0.18593288958072662,"198":-0.052703700959682465,"199":0.16443052887916565,"200":0.1177816167473793,"201":0.0036660493351519108,"202":0.08197889477014542,"203":-0.1286160945892334,"204":-0.05124689266085625,"205":0.07639197260141373,"206":0.12433581799268723,"207":-0.08126825094223022,"208":0.1935177594423294,"209":0.17893506586551666,"210":0.02496352046728134,"211":-0.06776247918605804,"212":0.04148022085428238,"213":0.17783331871032715,"214":0.038182541728019714,"215":-0.06470189243555069,"216":-0.0018355401698499918,"217":0.12925377488136292,"218":-0.10677459090948105,"219":0.13824735581874847,"220":-0.009765834547579288,"221":0.04199591651558876,"222":-0.1870785802602768,"223":-0.13868801295757294,"224":-0.10455538332462311,"225":0.0634050965309143,"226":-0.06251875311136246,"227":-0.11035395413637161,"228":0.16794860363006592,"229":0.03717857599258423,"230":0.17087963223457336,"231":-0.09916047006845474,"232":-0.12713110446929932,"233":0.07812976092100143,"234":-0.056596480309963226,"235":-0.18538318574428558,"236":0.0006081974133849144,"237":-0.041318945586681366,"238":0.09860894083976746,"239":0.09290309995412827,"240":0.03746361285448074,"241":-0.07098954170942307,"242":-0.19547463953495026,"243":0.01145199965685606,"244":-0.1340205818414688,"245":0.08860903233289719,"246":0.003055242355912924,"247":0.11202273517847061,"248":-0.07344059646129608,"249":0.18131548166275024,"250":0.18769174814224243,"251":0.06913507729768753,"252":-0.16825097799301147,"253":-0.09699919074773788,"254":-0.03524735942482948,"255":-0.009944954887032509,"256":-0.190863698720932,"257":-0.1736057549715042,"258":0.15249551832675934,"259":0.07551904767751694,"260":-0.07932943850755692,"261":0.1577337384223938,"262":-0.011752995662391186,"263":0.08222676068544388,"264":0.006812109146267176,"265":-0.045075878500938416,"266":0.011348866857588291,"267":0.20474101603031158,"268":0.15521971881389618,"269":-0.10631389170885086,"270":-0.07435381412506104,"271":0.18896062672138214,"272":0.19306093454360962,"273":0.1244829073548317,"274":0.0856194719672203,"275":0.1397007703781128,"276":-0.04830121621489525,"277":-0.016115769743919373,"278":0.11406907439231873,"279":0.15385325253009796,"280":-0.11738231778144836,"281":0.1824548989534378,"282":-0.10063572227954865,"283":-0.025259029120206833,"284":-0.1739659160375595,"285":-0.002053022151812911,"286":-0.0013029066612944007,"287":0.03154628723859787,"288":-0.15596847236156464,"289":0.17512914538383484,"290":0.09768358618021011,"291":0.15052618086338043,"292":0.04986552149057388,"293":0.11543802171945572,"294":0.09373004734516144,"295":0.07068922370672226,"296":-0.1566745489835739,"297":-0.09030413627624512,"298":-0.041850365698337555,"299":0.06172139570116997,"300":-0.1433144211769104,"301":-0.03820991888642311,"302":0.02021435834467411,"303":-0.17526030540466309,"304":0.19286945462226868,"305":-0.13953949511051178,"306":-0.1001582220196724,"307":0.019837455824017525,"308":0.0565715953707695,"309":-0.011378535069525242,"310":-0.19194021821022034,"311":-0.12620185315608978,"312":0.1224849671125412,"313":0.18562312424182892,"314":0.07218611985445023,"315":-0.1788947433233261,"316":0.06543493270874023,"317":-0.0010573932668194175,"318":0.03690291568636894,"319":0.13122230768203735,"320":0.06136855483055115,"321":0.03085770085453987,"322":-0.1717468798160553,"323":0.11384011805057526,"324":-0.050197768956422806,"325":0.12439233064651489,"326":-0.002387956017628312,"327":-0.16312767565250397,"328":-0.14653165638446808,"329":0.11032962799072266,"330":-0.07358347624540329,"331":-0.08752118051052094,"332":0.19835595786571503,"333":0.06829438358545303,"334":0.013246147893369198,"335":0.08191478997468948,"336":-0.04894267022609711,"337":-0.07518751174211502,"338":-0.034510884433984756,"339":0.15085133910179138,"340":-0.15925920009613037,"341":-0.025149794295430183,"342":0.11062515527009964,"343":-0.08634525537490845,"344":-0.0295735914260149,"345":0.1436048001050949,"346":-0.12833835184574127,"347":-0.13714061677455902,"348":-0.01795499585568905,"349":-0.07484865188598633,"350":-0.14798328280448914,"351":-0.058016855269670486,"352":0.1770354062318802,"353":-0.17533622682094574,"354":0.1471462845802307,"355":0.11062784492969513,"356":0.14810755848884583,"357":-0.16008992493152618,"358":-0.11045718193054199,"359":0.09362237900495529,"360":-0.05671697482466698,"361":0.1606760025024414,"362":-0.0805615484714508,"363":0.07498908042907715,"364":-0.11542990803718567,"365":-0.18178191781044006,"366":0.14190272986888885,"367":0.10651732236146927,"368":-0.03524191677570343,"369":0.07129516452550888,"370":-0.11298022419214249,"371":-0.10231534391641617,"372":-0.08930152654647827,"373":-0.07790102064609528,"374":-0.1447400450706482,"375":0.1275268942117691,"376":-0.1480054408311844,"377":-0.007196352817118168,"378":-0.0218479186296463,"379":-0.08582962304353714,"380":0.0725349709391594,"381":-0.07761618494987488,"382":-0.1717035323381424,"383":0.09047088027000427,"384":-0.08247934281826019,"385":0.07494313269853592,"386":-0.02955462783575058,"387":-0.046152036637067795,"388":-0.02680843509733677,"389":0.14327988028526306,"390":-0.07190361618995667,"391":-0.17938272655010223,"392":0.1779104769229889,"393":-0.0031860959716141224,"394":-0.1391025185585022,"395":0.194946750998497,"396":0.12475214153528214,"397":-0.16756753623485565,"398":-0.042460598051548004,"399":0.1971421092748642}},"6":{"bias":-0.5323386192321777,"weights":{"0":-0.029052402824163437,"1":0.06493417173624039,"2":0.06739199161529541,"3":-0.15892189741134644,"4":0.008191833272576332,"5":0.0779452919960022,"6":0.11794376373291016,"7":-0.0801861584186554,"8":0.056976448744535446,"9":-0.0385817252099514,"10":-0.1368660032749176,"11":0.031723540276288986,"12":0.052469734102487564,"13":0.09881260246038437,"14":0.1191653162240982,"15":-0.01774744875729084,"16":0.18101951479911804,"17":0.08647347241640091,"18":0.0922231674194336,"19":0.05556891858577728,"20":-0.03195803239941597,"21":-0.06789390742778778,"22":-0.07841479778289795,"23":0.11284231394529343,"24":-0.18626992404460907,"25":-0.06780412048101425,"26":0.07906260341405869,"27":0.11035967618227005,"28":0.17175573110580444,"29":-0.044261060655117035,"30":0.055105168372392654,"31":0.1347246617078781,"32":-0.19761617481708527,"33":-0.002049748320132494,"34":-0.15778592228889465,"35":0.16006386280059814,"36":-0.07236210256814957,"37":-0.15640684962272644,"38":0.18755896389484406,"39":-0.01716558448970318,"40":0.19385559856891632,"41":0.09172740578651428,"42":0.17394202947616577,"43":-0.03137096017599106,"44":-0.20772749185562134,"45":-0.052154526114463806,"46":0.09685402363538742,"47":0.09301962703466415,"48":-0.13666942715644836,"49":0.006601993460208178,"50":-0.22747419774532318,"51":-0.325790137052536,"52":0.2275538146495819,"53":-0.17947719991207123,"54":0.02086135745048523,"55":-0.0213639959692955,"56":0.10798285156488419,"57":0.013139181770384312,"58":-0.1906091570854187,"59":-0.005274870432913303,"60":0.06409916281700134,"61":-0.18835407495498657,"62":-0.16406574845314026,"63":-0.13270244002342224,"64":-0.3195309042930603,"65":-0.26108357310295105,"66":0.7481125593185425,"67":0.8283604383468628,"68":0.7281779646873474,"69":0.2427307367324829,"70":0.31168389320373535,"71":-0.24678634107112885,"72":-0.1502397358417511,"73":-0.42638275027275085,"74":0.01781047321856022,"75":0.18817971646785736,"76":-0.0844983235001564,"77":-0.1051730066537857,"78":0.16734354197978973,"79":-0.14420925080776215,"80":0.0734725221991539,"81":0.17048846185207367,"82":-0.0007009989349171519,"83":0.016430549323558807,"84":-0.18302315473556519,"85":0.35038623213768005,"86":-0.4893948435783386,"87":0.39836448431015015,"88":0.14429441094398499,"89":-0.4206286072731018,"90":-0.5021841526031494,"91":-0.1273615062236786,"92":-0.2620812952518463,"93":-0.8789898157119751,"94":-0.03378104045987129,"95":0.0873575210571289,"96":-0.04751510173082352,"97":-0.08969767391681671,"98":0.06697510182857513,"99":0.04447074234485626,"100":-0.028716593980789185,"101":0.17671003937721252,"102":-0.5989985466003418,"103":1.2740365266799927,"104":0.07392042130231857,"105":-0.7072938084602356,"106":-0.2627101242542267,"107":-0.3419979214668274,"108":1.933682918548584,"109":0.6798580884933472,"110":-0.2505386471748352,"111":0.4258245825767517,"112":-0.7534752488136292,"113":0.8329728245735168,"114":0.5084465146064758,"115":0.1648474633693695,"116":1.2938148975372314,"117":0.2060823142528534,"118":-0.061499226838350296,"119":0.10123073309659958,"120":-0.004229795653373003,"121":-0.0747591033577919,"122":-0.07082682102918625,"123":0.2838905155658722,"124":-0.09034722298383713,"125":0.15999692678451538,"126":-0.14883318543434143,"127":-0.7897248268127441,"128":0.43492332100868225,"129":-0.9008451104164124,"130":-0.26218560338020325,"131":0.05479147657752037,"132":-0.3922545313835144,"133":-0.1489746868610382,"134":0.49926143884658813,"135":0.7763518691062927,"136":1.448819637298584,"137":0.21688850224018097,"138":0.05188870057463646,"139":-0.0877017229795456,"140":0.06412924081087112,"141":0.018399400636553764,"142":0.09589481353759766,"143":0.4363705813884735,"144":0.4395989775657654,"145":0.8548086285591125,"146":-1.0317925214767456,"147":-0.4856267273426056,"148":0.08212500810623169,"149":0.14898288249969482,"150":-0.10742589086294174,"151":-0.8855805993080139,"152":-0.3036063015460968,"153":1.374690294265747,"154":1.1824005842208862,"155":1.0535383224487305,"156":1.2805672883987427,"157":-0.09851319342851639,"158":0.15793399512767792,"159":-0.018123114481568336,"160":-0.029079819098114967,"161":-0.008248310536146164,"162":-0.1696355789899826,"163":-0.2063053399324417,"164":0.051494717597961426,"165":0.1592479944229126,"166":0.6817500591278076,"167":-0.5632708668708801,"168":0.5428103804588318,"169":0.19285283982753754,"170":0.21095320582389832,"171":0.4859584867954254,"172":0.5876334309577942,"173":0.31186994910240173,"174":-1.3487529754638672,"175":-0.880942702293396,"176":-0.07565281540155411,"177":-0.0996827483177185,"178":-0.04716435819864273,"179":-0.17068010568618774,"180":-0.15110976994037628,"181":0.16936816275119781,"182":-0.5772852301597595,"183":-1.829252004623413,"184":-1.0951095819473267,"185":-1.7525551319122314,"186":-0.205206960439682,"187":-0.3666767179965973,"188":-0.4688493609428406,"189":-0.5358695387840271,"190":1.013207197189331,"191":0.24857838451862335,"192":0.13057391345500946,"193":-1.54006028175354,"194":-3.2160370349884033,"195":-0.2395249903202057,"196":-0.33808115124702454,"197":-0.1443830281496048,"198":0.06640975922346115,"199":-0.18954609334468842,"200":0.09619664400815964,"201":-0.09826856106519699,"202":-0.07088958472013474,"203":0.053622182458639145,"204":0.14672742784023285,"205":0.029460759833455086,"206":-0.1873270869255066,"207":0.06672206521034241,"208":0.010412175208330154,"209":0.0002552353253122419,"210":-0.26552364230155945,"211":0.13574029505252838,"212":-0.09983651340007782,"213":0.1260909140110016,"214":0.07174450159072876,"215":-0.19312255084514618,"216":-0.12937624752521515,"217":0.08541582524776459,"218":-0.017979195341467857,"219":-0.07964098453521729,"220":-0.08947489410638809,"221":-0.023103930056095123,"222":0.1549302488565445,"223":-0.13004270195960999,"224":-0.07060571014881134,"225":-0.03712226450443268,"226":0.18308812379837036,"227":-0.06672897934913635,"228":0.1882045418024063,"229":-0.0435158833861351,"230":-0.07919765263795853,"231":-0.1929556280374527,"232":0.051436275243759155,"233":0.13371622562408447,"234":-0.16509436070919037,"235":-0.19145312905311584,"236":-0.06179774925112724,"237":-0.0019057206809520721,"238":-0.04407308250665665,"239":0.20318728685379028,"240":-0.12927179038524628,"241":0.17608334124088287,"242":-0.18144021928310394,"243":0.07421290129423141,"244":-0.04815402999520302,"245":0.08686654269695282,"246":-0.007753006182610989,"247":0.1122901439666748,"248":-0.07841692119836807,"249":0.1642007976770401,"250":-0.053447917103767395,"251":0.019629154354333878,"252":-0.16059066355228424,"253":-0.03868547081947327,"254":0.02228810451924801,"255":-0.16115641593933105,"256":0.09816985577344894,"257":-0.1915600448846817,"258":-0.10851194709539413,"259":-0.0862320214509964,"260":-0.06986860930919647,"261":0.007986861281096935,"262":-0.15844236314296722,"263":-0.1672549843788147,"264":0.0038206963799893856,"265":0.11897284537553787,"266":-0.3718760013580322,"267":0.07847370952367783,"268":0.062093738466501236,"269":-0.09862921386957169,"270":-0.13729535043239594,"271":-0.06888502836227417,"272":0.0784391313791275,"273":0.19141636788845062,"274":-0.11632315814495087,"275":-0.09024292975664139,"276":-0.0917004942893982,"277":-0.17766337096691132,"278":-0.16515648365020752,"279":-0.011522608809173107,"280":-0.35601896047592163,"281":-0.0028957135509699583,"282":0.0615108460187912,"283":0.028013531118631363,"284":0.12535442411899567,"285":0.1435611993074417,"286":-0.030260208994150162,"287":0.018885957077145576,"288":-0.1497715562582016,"289":0.19326473772525787,"290":-0.16557489335536957,"291":0.17957019805908203,"292":0.08503919839859009,"293":0.04486522078514099,"294":-0.19044674932956696,"295":0.0809190645813942,"296":-0.020003819838166237,"297":0.17983269691467285,"298":-0.13358451426029205,"299":-0.09344002604484558,"300":-0.13050168752670288,"301":0.06565617024898529,"302":-0.04680176451802254,"303":0.02444406971335411,"304":-0.04988238587975502,"305":-0.06355949491262436,"306":-0.013468300923705101,"307":0.18484748899936676,"308":-0.13672052323818207,"309":0.058116309344768524,"310":0.05235760658979416,"311":-0.11767582595348358,"312":0.05644999444484711,"313":0.1440163254737854,"314":0.07246078550815582,"315":0.03276767209172249,"316":-0.02803982049226761,"317":-0.12140113115310669,"318":-0.0323626883327961,"319":-0.07714490592479706,"320":0.15000107884407043,"321":0.09885654598474503,"322":-0.18157969415187836,"323":0.05901080369949341,"324":-0.06683538854122162,"325":-0.1118050143122673,"326":-0.02901287004351616,"327":0.10794760286808014,"328":0.027034608647227287,"329":-0.1083081066608429,"330":-0.08285032212734222,"331":0.10672362893819809,"332":-0.05258642137050629,"333":-0.13014476001262665,"334":0.08695558458566666,"335":0.14663687348365784,"336":-0.15007688105106354,"337":-0.010386291891336441,"338":0.10500136017799377,"339":-0.06988835334777832,"340":-0.039690256118774414,"341":-0.00975717045366764,"342":0.0270876195281744,"343":-0.125521719455719,"344":-0.1150367483496666,"345":0.0241031926125288,"346":-0.16536933183670044,"347":-0.1711944341659546,"348":0.13518361747264862,"349":-0.01746179163455963,"350":-0.05963873863220215,"351":0.09729576855897903,"352":-0.13603456318378448,"353":0.08049098402261734,"354":-0.06533361226320267,"355":-0.06447116285562515,"356":0.03159835562109947,"357":0.012914003804326057,"358":0.16724900901317596,"359":-0.003627151483669877,"360":0.10963374376296997,"361":0.1606864631175995,"362":0.042327821254730225,"363":-0.1388806700706482,"364":-0.23797954618930817,"365":0.22351887822151184,"366":-0.08181868493556976,"367":0.12650267779827118,"368":-0.018458131700754166,"369":-0.05641818046569824,"370":-0.04377325624227524,"371":-0.1187744140625,"372":-0.02940133772790432,"373":0.12445338070392609,"374":-0.14596860110759735,"375":-0.08212420344352722,"376":0.013031095266342163,"377":0.1699400097131729,"378":-0.12765102088451385,"379":0.23670732975006104,"380":0.06783337146043777,"381":0.10638010501861572,"382":0.08357605338096619,"383":0.1524377167224884,"384":-0.179559588432312,"385":-0.00637833634391427,"386":-0.08564504235982895,"387":0.019581543281674385,"388":-0.005330528132617474,"389":0.030518073588609695,"390":-0.05974942445755005,"391":-0.1331205517053604,"392":-0.22712422907352448,"393":-0.09500441700220108,"394":0.13275468349456787,"395":0.19912295043468475,"396":-0.1855161190032959,"397":-0.12304016202688217,"398":0.12955431640148163,"399":0.10876260697841644}},"7":{"bias":-0.049048058688640594,"weights":{"0":-0.08240392804145813,"1":0.056660134345293045,"2":-0.09914051741361618,"3":-0.1671348661184311,"4":0.06281442940235138,"5":0.08090324699878693,"6":0.04389498382806778,"7":-0.10274877399206161,"8":0.11682550609111786,"9":-0.13246722519397736,"10":0.028421757742762566,"11":0.00552097475156188,"12":-0.013508587144315243,"13":0.01264255028218031,"14":0.1322133094072342,"15":-0.06850618869066238,"16":0.16684553027153015,"17":-0.1594206541776657,"18":0.12036653608083725,"19":0.07547909766435623,"20":-0.1455868035554886,"21":-0.018539147451519966,"22":-0.13019950687885284,"23":0.03176206722855568,"24":0.009258854202926159,"25":-0.04076044633984566,"26":-0.1055581122636795,"27":-0.13586461544036865,"28":-0.16505011916160583,"29":0.13214464485645294,"30":-0.06684157252311707,"31":0.1324739158153534,"32":0.13398586213588715,"33":-0.00913088396191597,"34":-0.14305059611797333,"35":-0.0376242995262146,"36":-0.17166651785373688,"37":0.0957329198718071,"38":0.18525707721710205,"39":-0.18375304341316223,"40":0.034839220345020294,"41":0.14531733095645905,"42":0.19697703421115875,"43":0.08406122028827667,"44":-0.05256856977939606,"45":0.1113123968243599,"46":-0.035318080335855484,"47":0.00658089853823185,"48":0.11331214010715485,"49":0.14192907512187958,"50":0.0178594458848238,"51":-0.2138843834400177,"52":0.15477436780929565,"53":-0.03108585998415947,"54":0.07996131479740143,"55":-0.1033637672662735,"56":0.10017792880535126,"57":-0.14471085369586945,"58":-0.13068939745426178,"59":0.047674063593149185,"60":-0.15905095636844635,"61":-0.028020529076457024,"62":-0.018682917580008507,"63":-0.13820219039916992,"64":-0.2150464504957199,"65":-0.12642545998096466,"66":0.22771623730659485,"67":-0.1108766570687294,"68":0.07365875691175461,"69":-0.5530076622962952,"70":-0.6470798850059509,"71":-0.3746061325073242,"72":-0.07417598366737366,"73":0.37441393733024597,"74":0.49490198493003845,"75":0.44453397393226624,"76":0.10915147513151169,"77":-0.09793495386838913,"78":0.11911926418542862,"79":-0.18464282155036926,"80":0.06992094218730927,"81":0.14331753551959991,"82":0.14767786860466003,"83":-0.14383329451084137,"84":0.516789436340332,"85":0.8420327305793762,"86":0.0768168643116951,"87":0.36065277457237244,"88":0.27695414423942566,"89":0.1608104407787323,"90":-0.6921247839927673,"91":0.7632346153259277,"92":-0.7154783606529236,"93":0.18808919191360474,"94":0.813442587852478,"95":0.3359026610851288,"96":0.38078296184539795,"97":0.10496851056814194,"98":0.014506760984659195,"99":0.08627841621637344,"100":0.038334257900714874,"101":-0.11627282947301865,"102":-0.7144224047660828,"103":-0.2055758535861969,"104":0.16511540114879608,"105":0.9714857935905457,"106":-0.4074958264827728,"107":0.12185865640640259,"108":0.16079464554786682,"109":0.7551562786102295,"110":0.46823546290397644,"111":0.7154862880706787,"112":-0.05670062080025673,"113":0.5906807780265808,"114":0.054192472249269485,"115":-0.11982367932796478,"116":-0.11464209109544754,"117":-0.22335490584373474,"118":0.08636177331209183,"119":0.06000571325421333,"120":0.11830978095531464,"121":-0.027741193771362305,"122":-0.8186252117156982,"123":-1.269859790802002,"124":0.8406192660331726,"125":0.032579127699136734,"126":1.1584839820861816,"127":-0.22135360538959503,"128":0.12317889928817749,"129":-0.395740270614624,"130":0.8613825440406799,"131":0.09377815574407578,"132":0.35827624797821045,"133":0.10986929386854172,"134":-0.8562910556793213,"135":0.15470008552074432,"136":0.08267077058553696,"137":0.09383431077003479,"138":0.3219170868396759,"139":0.13904838263988495,"140":-0.16973580420017242,"141":-0.17900440096855164,"142":-0.9763704538345337,"143":-0.8391338586807251,"144":0.9656065702438354,"145":-1.191960096359253,"146":-0.5108515024185181,"147":-0.009130810387432575,"148":0.7023804187774658,"149":-0.917898416519165,"150":0.8556005358695984,"151":-1.24210524559021,"152":0.18440116941928864,"153":-0.5616767406463623,"154":-0.7394505143165588,"155":0.9125615954399109,"156":-0.03287113830447197,"157":0.039339009672403336,"158":0.05692775174975395,"159":0.07846840471029282,"160":-0.17032460868358612,"161":0.10711786150932312,"162":-0.679324209690094,"163":-0.4461445212364197,"164":-1.3667337894439697,"165":-0.5894727110862732,"166":0.15472590923309326,"167":-0.5184162259101868,"168":0.34370413422584534,"169":0.16342806816101074,"170":0.5408296585083008,"171":-0.08321387320756912,"172":-0.8131794333457947,"173":-0.8847759962081909,"174":-0.22717486321926117,"175":0.2602938413619995,"176":-0.10955377668142319,"177":-0.17677238583564758,"178":-0.19662202894687653,"179":0.11876023560762405,"180":0.09171340614557266,"181":0.007160231936722994,"182":-0.34566837549209595,"183":-0.445761501789093,"184":-1.2554107904434204,"185":0.32964861392974854,"186":0.810357928276062,"187":0.4629518389701843,"188":0.655120849609375,"189":1.2435071468353271,"190":0.8084903359413147,"191":0.5734037160873413,"192":-0.5764077305793762,"193":-1.7394671440124512,"194":-3.3203635215759277,"195":-1.0977798700332642,"196":-0.028631992638111115,"197":-0.08107221126556396,"198":0.021428182721138,"199":0.12825137376785278,"200":-0.19475796818733215,"201":0.06177360936999321,"202":0.07317119091749191,"203":-0.19900889694690704,"204":0.09256453812122345,"205":0.004315911326557398,"206":-0.10485353320837021,"207":0.12716300785541534,"208":-0.10725107789039612,"209":-0.06227857246994972,"210":0.14229239523410797,"211":-0.20900551974773407,"212":-0.1098058745265007,"213":-0.11213182657957077,"214":0.1053973063826561,"215":-0.015131304040551186,"216":-0.07480879127979279,"217":0.14151516556739807,"218":0.1840820014476776,"219":0.17975883185863495,"220":0.05275152623653412,"221":-0.18629640340805054,"222":-0.028251849114894867,"223":-0.17601411044597626,"224":0.112904854118824,"225":-0.22464032471179962,"226":-0.19347992539405823,"227":0.03257473558187485,"228":0.012488464824855328,"229":0.13269589841365814,"230":-0.005265417974442244,"231":0.1577150970697403,"232":-0.11547981947660446,"233":-0.16934791207313538,"234":-0.14115199446678162,"235":-0.02958100475370884,"236":-0.14733965694904327,"237":-0.1690836250782013,"238":-0.20339681208133698,"239":-0.15746760368347168,"240":-0.06008729338645935,"241":-0.06832154840230942,"242":-0.010986973531544209,"243":0.05784323439002037,"244":-0.11530003696680069,"245":-0.1338365226984024,"246":0.0015369707252830267,"247":-0.13741452991962433,"248":-0.18967993557453156,"249":-0.09477761387825012,"250":-0.17492635548114777,"251":0.03543270751833916,"252":-0.11290677636861801,"253":-0.19763147830963135,"254":0.08519433438777924,"255":-0.1954559087753296,"256":-0.08010511845350266,"257":-0.0561458058655262,"258":-0.0981835201382637,"259":0.11806954443454742,"260":0.11696940660476685,"261":-0.15117502212524414,"262":0.11367516964673996,"263":-0.19859547913074493,"264":-0.10399451106786728,"265":0.16229480504989624,"266":0.15964050590991974,"267":-0.22827774286270142,"268":0.10360003262758255,"269":-0.04602152109146118,"270":0.03646022081375122,"271":-0.05522238463163376,"272":-0.1359664499759674,"273":-0.16492365300655365,"274":-0.0954580083489418,"275":0.05957431718707085,"276":0.05841785669326782,"277":-0.04951303452253342,"278":0.07937385886907578,"279":-0.13964901864528656,"280":0.08699845522642136,"281":0.0031053523998707533,"282":-0.020487211644649506,"283":0.10045289993286133,"284":-0.11752641201019287,"285":0.050749316811561584,"286":-0.007531025912612677,"287":0.1459159404039383,"288":-0.1785203069448471,"289":0.0361550934612751,"290":0.11713124811649323,"291":0.04950922727584839,"292":0.05769128352403641,"293":0.005077158100903034,"294":0.08010471612215042,"295":0.071406289935112,"296":0.18377108871936798,"297":0.18339090049266815,"298":0.08972247689962387,"299":0.16471551358699799,"300":0.15682977437973022,"301":0.13714469969272614,"302":0.07904422283172607,"303":-0.16209852695465088,"304":-0.07958665490150452,"305":0.11975367367267609,"306":0.11413828283548355,"307":0.013623121194541454,"308":0.10212583094835281,"309":0.09410353004932404,"310":0.17998741567134857,"311":-0.053273241966962814,"312":-0.15864938497543335,"313":0.08384007960557938,"314":-0.048974569886922836,"315":-0.18231935799121857,"316":0.04490828514099121,"317":0.11582252383232117,"318":-0.14293935894966125,"319":-0.189537912607193,"320":-0.05099599435925484,"321":0.18850186467170715,"322":0.03979451209306717,"323":0.004340179264545441,"324":-0.19849777221679688,"325":-0.1185138002038002,"326":0.06476810574531555,"327":-0.08264127373695374,"328":-0.1790103018283844,"329":-0.022984731942415237,"330":-0.13298381865024567,"331":0.02986854501068592,"332":0.1898200660943985,"333":0.059578124433755875,"334":0.12412398308515549,"335":0.010212895460426807,"336":-0.07734712213277817,"337":-0.07981690764427185,"338":0.102340929210186,"339":-0.10569407790899277,"340":0.15690584480762482,"341":0.04489342123270035,"342":-0.1917601376771927,"343":0.16046592593193054,"344":-0.1027795821428299,"345":0.13575387001037598,"346":0.1235288679599762,"347":-0.04790818691253662,"348":-0.05061516910791397,"349":-0.12827205657958984,"350":-0.014574169181287289,"351":-0.1943824738264084,"352":0.0764763355255127,"353":-0.07716532796621323,"354":-0.17243991792201996,"355":-0.04541658237576485,"356":-0.015026044100522995,"357":0.09120091050863266,"358":0.033992499113082886,"359":0.05479872599244118,"360":0.10932698100805283,"361":0.1152585819363594,"362":-0.11565855890512466,"363":0.15120607614517212,"364":-0.09889278560876846,"365":-0.15995462238788605,"366":-0.03661258518695831,"367":0.0823352113366127,"368":-0.09765373915433884,"369":-0.16437259316444397,"370":0.10644538700580597,"371":-0.024274127557873726,"372":0.028906114399433136,"373":-0.18916521966457367,"374":0.09845920652151108,"375":0.1543126255273819,"376":0.17701013386249542,"377":0.03930256515741348,"378":-0.10111542791128159,"379":-0.19869151711463928,"380":0.10513504594564438,"381":0.1535508632659912,"382":-0.19803012907505035,"383":0.019055530428886414,"384":0.0437624491751194,"385":-0.12532486021518707,"386":-0.16572821140289307,"387":0.1895976960659027,"388":0.1963375061750412,"389":-0.17406143248081207,"390":-0.058029331266880035,"391":0.02824658527970314,"392":0.03039124794304371,"393":-0.13720664381980896,"394":-0.008790897205471992,"395":0.18468736112117767,"396":0.14145928621292114,"397":0.19989822804927826,"398":-0.07489293068647385,"399":-0.04880395904183388}},"8":{"bias":-0.7981988191604614,"weights":{"0":-0.02005861885845661,"1":0.07579611241817474,"2":-0.1370200663805008,"3":-0.0018549490487203002,"4":0.05311698839068413,"5":0.038946546614170074,"6":0.140266552567482,"7":0.16335347294807434,"8":0.11582164466381073,"9":-0.09539616852998734,"10":-0.18829409778118134,"11":-0.17615006864070892,"12":0.10290469229221344,"13":-0.18136607110500336,"14":-0.1928490698337555,"15":0.17832159996032715,"16":-0.15352849662303925,"17":0.10055238008499146,"18":0.016155067831277847,"19":0.02181948535144329,"20":0.08655460923910141,"21":0.18687357008457184,"22":-0.15448015928268433,"23":-0.19317732751369476,"24":-0.11725639551877975,"25":-0.0949672982096672,"26":-0.10249551385641098,"27":0.11592143774032593,"28":0.09599610418081284,"29":-0.07094887644052505,"30":0.11167555302381516,"31":-0.17940060794353485,"32":0.09068924933671951,"33":0.1620529741048813,"34":0.14751918613910675,"35":-0.0631788969039917,"36":-0.16510049998760223,"37":-0.0045989397913217545,"38":-0.18307894468307495,"39":-0.15331608057022095,"40":0.15649041533470154,"41":0.1889784336090088,"42":0.058691345155239105,"43":0.11686442047357559,"44":0.08756814152002335,"45":0.1575266718864441,"46":-0.034247495234012604,"47":0.13435202836990356,"48":-0.045275282114744186,"49":-0.021016424521803856,"50":-0.17146411538124084,"51":-0.06822055578231812,"52":-0.05263904854655266,"53":0.030991533771157265,"54":0.06711457669734955,"55":-0.12841641902923584,"56":0.1661655157804489,"57":-0.11887744069099426,"58":-0.03367798030376434,"59":0.010007658042013645,"60":-0.12685415148735046,"61":0.13229644298553467,"62":0.052319787442684174,"63":0.1781526803970337,"64":-0.04154953360557556,"65":-0.29310232400894165,"66":0.20923461019992828,"67":0.5901721715927124,"68":0.4022233486175537,"69":0.6796795725822449,"70":0.3032895624637604,"71":-0.2490595281124115,"72":-0.5313325524330139,"73":-0.4907536804676056,"74":0.07913181930780411,"75":-0.2199763059616089,"76":0.18415503203868866,"77":0.25445055961608887,"78":0.3817223906517029,"79":0.2699096202850342,"80":0.04382294788956642,"81":0.09245294332504272,"82":-0.30859270691871643,"83":-0.6020011305809021,"84":-0.9686530828475952,"85":-1.2768868207931519,"86":0.6078826189041138,"87":1.3004553318023682,"88":1.201578140258789,"89":0.42434564232826233,"90":-0.287757933139801,"91":-0.36914339661598206,"92":0.08162026852369308,"93":-0.1363653987646103,"94":0.3214912414550781,"95":0.45969584584236145,"96":0.25995516777038574,"97":0.26151108741760254,"98":-0.12079000473022461,"99":0.1115678921341896,"100":-0.05775725096464157,"101":-0.18874308466911316,"102":0.1923104077577591,"103":-0.005701993592083454,"104":-1.2212156057357788,"105":-0.6107659339904785,"106":-0.34609800577163696,"107":-0.3532823920249939,"108":-0.1331392526626587,"109":-0.09591515362262726,"110":-0.4037855863571167,"111":-0.10778307914733887,"112":0.923453152179718,"113":0.8707497715950012,"114":1.1676496267318726,"115":-0.043178483843803406,"116":0.31444716453552246,"117":0.43644091486930847,"118":-0.12734702229499817,"119":0.04978877305984497,"120":0.04802007973194122,"121":0.16616754233837128,"122":-0.23212899267673492,"123":0.3434688150882721,"124":0.2459816336631775,"125":-0.47025394439697266,"126":0.1217600554227829,"127":0.3004767894744873,"128":0.13849082589149475,"129":-0.2694011330604553,"130":0.41408514976501465,"131":0.21808253228664398,"132":0.8596742153167725,"133":0.24488188326358795,"134":1.1031413078308105,"135":-0.42914992570877075,"136":0.511311411857605,"137":0.2924325168132782,"138":0.14184711873531342,"139":0.11548132449388504,"140":0.0484267994761467,"141":-0.13209784030914307,"142":-0.5500319600105286,"143":-1.0070335865020752,"144":-0.5280738472938538,"145":-2.825908899307251,"146":-0.07999376207590103,"147":0.7355192303657532,"148":-0.5229223370552063,"149":-2.06683611869812,"150":-0.29913130402565,"151":-0.03010609559714794,"152":1.5791196823120117,"153":-0.6797687411308289,"154":-0.18708908557891846,"155":-0.29095813632011414,"156":0.5564705729484558,"157":0.23108945786952972,"158":-0.02557447738945484,"159":0.1781519055366516,"160":-0.1194886863231659,"161":0.18701158463954926,"162":-0.19222328066825867,"163":-0.061287008225917816,"164":-0.7037904858589172,"165":-0.35170283913612366,"166":0.45094528794288635,"167":2.016608715057373,"168":-1.3216619491577148,"169":-1.3382691144943237,"170":0.8220518231391907,"171":0.3255515992641449,"172":1.960191011428833,"173":0.8411524295806885,"174":-0.3092125654220581,"175":-0.08051979541778564,"176":-0.05302926152944565,"177":0.07858973741531372,"178":0.05466443672776222,"179":0.16923947632312775,"180":0.019009007140994072,"181":-0.012142367660999298,"182":-0.793901264667511,"183":-0.1752302199602127,"184":-0.7411311864852905,"185":-1.9209380149841309,"186":-1.7940422296524048,"187":-0.18633972108364105,"188":0.10613574087619781,"189":0.173060342669487,"190":0.6919519901275635,"191":-0.5928469300270081,"192":-0.32492583990097046,"193":2.091146469116211,"194":0.3287840485572815,"195":-0.16950060427188873,"196":-0.20370040833950043,"197":-0.18280045688152313,"198":0.10084490478038788,"199":-0.09837009012699127,"200":-0.14287258684635162,"201":-0.09117836505174637,"202":0.10580690205097198,"203":-0.05789337679743767,"204":0.17512734234333038,"205":-0.015682179480791092,"206":0.10382739454507828,"207":0.08920746296644211,"208":0.13049982488155365,"209":-0.035799503326416016,"210":0.13466109335422516,"211":0.012725942768156528,"212":-0.11002619564533234,"213":0.06464515626430511,"214":-0.10801412165164948,"215":-0.1498567759990692,"216":-0.11569947004318237,"217":0.08563555032014847,"218":-0.19865095615386963,"219":0.19671064615249634,"220":-0.16187739372253418,"221":0.18815088272094727,"222":0.11351995915174484,"223":-0.10947570949792862,"224":-0.01932203583419323,"225":-0.1537400335073471,"226":-0.01323346234858036,"227":0.050851959735155106,"228":0.17073693871498108,"229":0.18602770566940308,"230":-0.00624082563444972,"231":-0.04261480271816254,"232":-0.11294138431549072,"233":-0.11798808723688126,"234":0.013863589614629745,"235":0.15877439081668854,"236":-0.16002456843852997,"237":0.0651504173874855,"238":0.029986130073666573,"239":-0.0007515443139709532,"240":-0.013461234048008919,"241":-0.19996991753578186,"242":0.01420903205871582,"243":-0.08639436960220337,"244":0.037828605622053146,"245":-0.071747325360775,"246":-0.08601963520050049,"247":0.13844317197799683,"248":-0.03175625950098038,"249":-0.16934554278850555,"250":-0.03738374263048172,"251":-0.08121956884860992,"252":-0.18745671212673187,"253":0.06401598453521729,"254":0.19237981736660004,"255":0.09862478077411652,"256":-0.06434926390647888,"257":0.1927156001329422,"258":-0.06327872723340988,"259":-0.037400923669338226,"260":-0.1201469898223877,"261":-0.09214486181735992,"262":0.08317679166793823,"263":0.07742764055728912,"264":0.1097739115357399,"265":-0.013131046667695045,"266":-0.08265244215726852,"267":-0.16475097835063934,"268":-0.022712750360369682,"269":-0.18596890568733215,"270":0.06274908781051636,"271":-0.001669270102865994,"272":0.008328215219080448,"273":-0.17843370139598846,"274":-0.07223168015480042,"275":0.03555220738053322,"276":-0.08605033904314041,"277":-0.06427142769098282,"278":0.09215067327022552,"279":-0.05385180935263634,"280":0.020338820293545723,"281":0.08833704888820648,"282":0.09451289474964142,"283":-0.17134006321430206,"284":-0.09679985046386719,"285":-0.010431806556880474,"286":0.06644909828901291,"287":0.12322498112916946,"288":-0.12684686481952667,"289":0.15303254127502441,"290":0.060546036809682846,"291":-0.056099411100149155,"292":0.015151617117226124,"293":-0.13450607657432556,"294":-0.11607930809259415,"295":-0.10478328168392181,"296":-0.1772913783788681,"297":-0.062198493629693985,"298":-0.11117608845233917,"299":0.11506517976522446,"300":-0.14959965646266937,"301":-0.01321761030703783,"302":-0.13461729884147644,"303":0.11147258430719376,"304":-0.14681120216846466,"305":-0.18618083000183105,"306":0.1921074241399765,"307":0.19174109399318695,"308":-0.0992300733923912,"309":-0.09826506674289703,"310":0.09223860502243042,"311":0.13171739876270294,"312":-0.14317840337753296,"313":-0.010631010867655277,"314":0.16317036747932434,"315":0.1298644244670868,"316":0.02312353625893593,"317":-0.1921026110649109,"318":-0.12322159856557846,"319":0.07100813835859299,"320":-0.06549569219350815,"321":-0.14863057434558868,"322":0.018563760444521904,"323":0.016932962462306023,"324":0.010177264921367168,"325":0.03348492085933685,"326":0.041324783116579056,"327":0.12960132956504822,"328":0.13180063664913177,"329":-0.1741984337568283,"330":0.008657085709273815,"331":0.15848124027252197,"332":0.16572244465351105,"333":-0.0010278492700308561,"334":0.05952931568026543,"335":0.0032120398245751858,"336":0.12865029275417328,"337":0.06434853374958038,"338":-0.19837269186973572,"339":0.1320755034685135,"340":-0.08442403376102448,"341":-0.11482454836368561,"342":-0.09608534723520279,"343":0.1992373764514923,"344":-0.19414612650871277,"345":0.011027836240828037,"346":0.16074825823307037,"347":0.06011918932199478,"348":0.19453591108322144,"349":0.07877449691295624,"350":-0.14805413782596588,"351":-0.10858288407325745,"352":-0.19459445774555206,"353":0.08180855959653854,"354":0.11396248638629913,"355":0.03702206164598465,"356":-0.19649703800678253,"357":0.022636370733380318,"358":-0.13066618144512177,"359":-0.058615315705537796,"360":-0.03499868884682655,"361":0.009516559541225433,"362":0.08138681948184967,"363":-0.12918700277805328,"364":0.08242134004831314,"365":-0.2030697911977768,"366":0.07017569988965988,"367":-0.07950382679700851,"368":0.08970486372709274,"369":0.13827891647815704,"370":-0.006906409282237291,"371":-0.06901555508375168,"372":-0.11696299910545349,"373":0.04301700368523598,"374":-0.14547812938690186,"375":-0.06640815734863281,"376":-0.15960638225078583,"377":0.06700515002012253,"378":-0.06058075278997421,"379":-0.0014447055291384459,"380":-0.12442509084939957,"381":0.18029281497001648,"382":-0.06331269443035126,"383":-0.17608219385147095,"384":-0.10810716450214386,"385":0.002034602453932166,"386":0.16957823932170868,"387":0.04326272010803223,"388":-0.041741177439689636,"389":-0.19773069024085999,"390":-0.08877000212669373,"391":-0.014138259924948215,"392":-0.1889510601758957,"393":-0.15331239998340607,"394":0.10999102145433426,"395":-0.07273265719413757,"396":-0.18076078593730927,"397":0.038101185113191605,"398":0.150975301861763,"399":-0.030566878616809845}},"9":{"bias":-0.9944757223129272,"weights":{"0":0.11014729738235474,"1":0.14254792034626007,"2":-0.04675734043121338,"3":-0.1289769411087036,"4":0.10265763103961945,"5":0.07999035716056824,"6":0.13465583324432373,"7":0.1081869900226593,"8":0.00874278973788023,"9":-0.0457301065325737,"10":0.08756238967180252,"11":-0.19238382577896118,"12":-0.08647032082080841,"13":0.052027080208063126,"14":0.10841823369264603,"15":-0.028970954939723015,"16":-0.1568884551525116,"17":-0.12857182323932648,"18":-0.00022572092711925507,"19":-0.04881729185581207,"20":-0.12542122602462769,"21":-0.13355106115341187,"22":-0.18699945509433746,"23":0.16949446499347687,"24":0.12443578243255615,"25":-0.15176790952682495,"26":-0.0051301633939146996,"27":-0.18328388035297394,"28":0.18857382237911224,"29":-0.06320539861917496,"30":0.12095324695110321,"31":0.12708984315395355,"32":0.18013200163841248,"33":0.0440940260887146,"34":0.11260388791561127,"35":-0.1154368668794632,"36":0.1444888710975647,"37":-0.07619821280241013,"38":0.05166669934988022,"39":0.0710270032286644,"40":-0.11303728818893433,"41":-0.031807854771614075,"42":0.09417113661766052,"43":-0.03879925236105919,"44":0.10450288653373718,"45":-0.03456056863069534,"46":0.06667603552341461,"47":0.21295371651649475,"48":0.3111187517642975,"49":0.15620286762714386,"50":-0.29682600498199463,"51":0.14256106317043304,"52":-0.07466395199298859,"53":-0.013985734432935715,"54":-0.18936467170715332,"55":-0.08079271018505096,"56":0.19254086911678314,"57":-0.03332926332950592,"58":-0.020470483228564262,"59":-0.14979152381420135,"60":0.19345253705978394,"61":-0.19959373772144318,"62":0.0854984000325203,"63":0.39641159772872925,"64":0.9224329590797424,"65":0.7593055963516235,"66":0.27051690220832825,"67":0.29836517572402954,"68":-0.055748309940099716,"69":0.12786580622196198,"70":-0.6165016889572144,"71":-0.3477238416671753,"72":-0.7270318865776062,"73":-0.15324905514717102,"74":-0.4321203827857971,"75":0.007670652586966753,"76":0.06700920313596725,"77":0.04939538240432739,"78":-0.17315146327018738,"79":0.07628799229860306,"80":0.03692666068673134,"81":-0.17351794242858887,"82":-0.10834913700819016,"83":0.3657187521457672,"84":1.0529788732528687,"85":0.6482242345809937,"86":0.5555393099784851,"87":-0.47546467185020447,"88":1.1130887269973755,